1.735131256282329559e-02,-1.763824955560266972e-03,1.227720873430371284e-03,-1.327649224549531937e-03
-6.571580655872821808e-03,-2.402639947831630707e-03,-2.052108757197856903e-03,1.399549422785639763e-03
6.871415302157402039e-03,-5.842546932399272919e-03,-8.662292966619133949e-04,3.711313474923372269e-03
1.769727445207536221e-03,4.083564272150397301e-04,-3.479746729135513306e-02,4.488577134907245636e-03
-2.762746298685669899e-03,-4.853361751884222031e-03,1.101998495869338512e-03,-7.601084653288125992e-04
2.596628852188587189e-03,9.163300273939967155e-04,-4.026414826512336731e-04,3.155424201395362616e-04
1.431434042751789093e-02,1.264499383978545666e-03,-3.165908902883529663e-02,-2.997944829985499382e-03
1.865371689200401306e-02,-9.404846467077732086e-03,-2.129472419619560242e-02,3.143066167831420898e-02
-9.037223062478005886e-04,-5.905349971726536751e-04,3.047826327383518219e-02,-6.060517625883221626e-05
-8.330542186740785837e-05,6.382303778082132339e-03,4.073660820722579956e-03,3.288096922915428877e-04
8.581351488828659058e-03,5.199821898713707924e-04,1.196198398247361183e-03,-1.064448966644704342e-03
-1.679922454059123993e-02,-3.244929830543696880e-04,3.498150967061519623e-03,-4.919612314552068710e-03
-6.193958688527345657e-05,2.724906057119369507e-02,1.670497294981032610e-05,-7.356818532571196556e-04
-3.547088708728551865e-04,-2.316350117325782776e-02,3.572863060981035233e-04,-4.729024134576320648e-03
2.036931738257408142e-02,-4.475741181522607803e-03,-1.450055465102195740e-02,-1.028007129207253456e-03
1.193117001093924046e-03,-8.455947972834110260e-03,8.096216246485710144e-03,8.790729334577918053e-04
-2.876629587262868881e-04,6.759391166269779205e-03,1.097766566090285778e-03,-7.698959670960903168e-04
6.570859812200069427e-03,1.195003930479288101e-02,-1.157187670469284058e-02,6.716532632708549500e-03
5.768297705799341202e-05,-2.268164418637752533e-02,7.697147666476666927e-04,-3.676792373880743980e-03
3.496212011668831110e-04,1.016764622181653976e-02,-4.008247051388025284e-04,1.082306844182312489e-03
1.074048923328518867e-04,2.299655927345156670e-03,6.585419178009033203e-03,-1.572463195770978928e-03
2.004059497267007828e-04,-2.866083057597279549e-03,-1.730339834466576576e-03,-1.072883489541709423e-03
-1.356872916221618652e-02,1.377368438988924026e-02,-1.713182777166366577e-03,9.750837925821542740e-04
3.768452210351824760e-03,-1.300661545246839523e-02,-3.341049014125019312e-04,1.435145456343889236e-02
8.511448279023170471e-03,4.254960268735885620e-02,-3.666597232222557068e-02,-2.395273745059967041e-02
-4.167233128100633621e-03,-3.763329982757568359e-02,-2.455779910087585449e-02,1.500286068767309189e-02
-8.410713635385036469e-03,1.701128669083118439e-02,1.842829585075378418e-02,-2.495947666466236115e-02
-8.169827982783317566e-03,-1.211183145642280579e-02,-8.860945701599121094e-03,1.151609933003783226e-03
5.398906068876385689e-05,1.496898382902145386e-02,1.462235115468502045e-03,-1.087861601263284683e-03
7.694936357438564301e-05,1.446655718609690666e-03,9.663574746809899807e-04,-8.488673483952879906e-05
8.454888127744197845e-03,-6.954542361199855804e-03,5.770243587903678417e-04,-1.283719297498464584e-02
4.674324300140142441e-03,4.030929412692785263e-03,1.174039556644856930e-03,-4.633325338363647461e-02
-2.005995484068989754e-03,-3.285940364003181458e-02,5.215806886553764343e-03,-7.450755219906568527e-06
1.360430195927619934e-02,-1.415939349681138992e-02,1.912457868456840515e-02,-1.646931865252554417e-03
6.389182992279529572e-03,3.002823796123266220e-04,-4.330785479396581650e-03,7.696881657466292381e-04
-6.767235230654478073e-03,4.068331792950630188e-03,1.561698503792285919e-03,-9.700159425847232342e-04
1.484038680791854858e-02,-7.927413098514080048e-03,9.231075528077781200e-04,2.253667451441287994e-03
3.053094027563929558e-03,3.322955220937728882e-03,-6.475160829722881317e-03,3.112841024994850159e-02
-3.013875102624297142e-04,5.106544587761163712e-03,6.780923577025532722e-04,3.224751353263854980e-02
-2.554540114942938089e-04,-1.563539844937622547e-04,6.223772652447223663e-03,-1.838062889873981476e-02
-4.026056558359414339e-04,1.089186407625675201e-02,4.637235775589942932e-03,-4.845600575208663940e-02
-1.466791727580130100e-04,2.489044517278671265e-02,1.515553798526525497e-03,-6.659482605755329132e-03
-1.112782338168472052e-04,2.422725036740303040e-02,-5.179298110306262970e-03,1.974974013864994049e-02
-4.167580045759677887e-04,1.275084260851144791e-02,-6.817068904638290405e-03,3.056590445339679718e-02
2.060545142740011215e-03,-3.998195170424878597e-04,-1.735469413688406348e-04,-6.715656258165836334e-03
-1.653434126637876034e-03,-2.383021637797355652e-07,2.071817778050899506e-02,-4.393497947603464127e-03
-1.032161409966647625e-03,5.345119861885905266e-04,6.918105063959956169e-04,-3.231279551982879639e-03
2.253851853311061859e-03,-2.395480405539274216e-04,-4.233722283970564604e-04,3.406841307878494263e-03
1.224910095334053040e-02,7.572245667688548565e-04,-6.001771427690982819e-03,-1.494989730417728424e-02
3.493685508146882057e-03,3.767732414416968822e-04,-5.484350491315126419e-03,-8.636245504021644592e-03
5.032123997807502747e-03,-1.301212236285209656e-02,1.883868873119354248e-02,2.560477587394416332e-04
-5.809023045003414154e-03,3.075844841077923775e-03,-2.968369517475366592e-03,-3.174710320308804512e-03
-5.021081306040287018e-03,1.100570987910032272e-02,-1.784415170550346375e-02,-5.375297274440526962e-03
8.680018596351146698e-03,1.539946161210536957e-02,-2.390541881322860718e-02,2.329431660473346710e-02
1.482746470719575882e-02,1.191139454022049904e-04,1.639292761683464050e-02,1.580746658146381378e-02
-3.109418554231524467e-03,-1.747816568240523338e-04,-2.507652156054973602e-03,7.453562226146459579e-03
4.422059864737093449e-04,-1.166477054357528687e-02,-2.473549917340278625e-02,1.407847390510141850e-03
-9.893042035400867462e-03,8.823236450552940369e-03,3.728128597140312195e-02,-2.551796380430459976e-03
4.315702244639396667e-03,-4.375298740342259407e-04,9.184253867715597153e-04,-7.000499754212796688e-04
-8.261946495622396469e-04,1.011997577734291553e-03,1.180795588879846036e-04,-4.727150371763855219e-05
1.911728759296238422e-04,-1.628233236260712147e-03,-2.177881635725498199e-02,-1.167441252619028091e-02
4.133435431867837906e-04,-4.333440447226166725e-04,-4.031739663332700729e-03,4.915275145322084427e-03
-6.150151020847260952e-04,8.662684704177081585e-04,-1.706880982965230942e-03,-9.771572425961494446e-03
7.022832287475466728e-04,-6.630867137573659420e-04,2.687858883291482925e-03,-1.518760807812213898e-03
-1.000026240944862366e-02,-1.631268183700740337e-03,1.671307161450386047e-02,1.498274155892431736e-03
1.406425260938704014e-03,2.379975281655788422e-03,-1.632311905268579721e-04,4.037823528051376343e-03
5.315195769071578979e-03,1.874954439699649811e-02,-1.716728904284536839e-03,-1.619700924493372440e-04
1.563492417335510254e-02,-3.772664815187454224e-02,2.041814150288701057e-03,-6.267695425776764750e-05
3.365124575793743134e-03,5.628017242997884750e-04,-6.544138770550489426e-03,4.100051592104136944e-04
1.762221939861774445e-02,1.223605358973145485e-04,-2.794340718537569046e-03,9.280800586566329002e-04
7.647917373105883598e-04,-5.194478435441851616e-04,1.079129520803689957e-03,7.529921131208539009e-04
1.264252420514822006e-02,-2.309051342308521271e-03,-1.092454418540000916e-03,-9.389298502355813980e-04
1.204726286232471466e-04,1.699960790574550629e-03,9.894155897200107574e-03,-9.723833645693957806e-04
-5.144173279404640198e-03,2.082380233332514763e-03,-2.075411751866340637e-02,-7.619527750648558140e-04
8.656335063278675079e-03,6.771094165742397308e-03,1.181701547466218472e-03,-1.111692632548511028e-03
-1.147309085354208946e-03,-1.115555875003337860e-03,-4.456161987036466599e-03,3.867951221764087677e-03
-3.031036071479320526e-02,5.298507749103009701e-04,1.093815080821514130e-02,-8.532677777111530304e-03
-2.202260680496692657e-02,-3.729274030774831772e-03,1.661737635731697083e-02,1.301744859665632248e-02
-4.037624166812747717e-04,-1.998783554881811142e-03,1.216733595356345177e-03,7.113706320524215698e-03
6.258802750380709767e-05,-1.676539832260459661e-04,-5.399191286414861679e-04,4.823977593332529068e-03
1.111010834574699402e-02,1.375201856717467308e-03,1.034644804894924164e-02,-3.758482169359922409e-03
1.469110371544957161e-03,-8.102464489638805389e-04,-1.627627527341246605e-03,5.020081298425793648e-04
-1.225808542221784592e-02,6.032082717865705490e-03,-1.004897523671388626e-02,-9.312193724326789379e-04
1.318896538577973843e-03,-7.313456153497099876e-04,7.776741404086351395e-04,4.253122024238109589e-03
-1.172006595879793167e-02,5.943807307630777359e-03,1.137513201683759689e-03,-5.153386155143380165e-04
-7.528875488787889481e-03,2.092468785122036934e-03,1.684625050984323025e-03,1.775640121195465326e-04
-8.014700375497341156e-03,1.109082438051700592e-02,2.538950368762016296e-02,-1.006270525977015495e-03
2.771705016493797302e-02,-2.619072422385215759e-02,1.421766472049057484e-03,3.273044712841510773e-04
1.293045002967119217e-02,-5.224187043495476246e-05,-1.360307098366320133e-03,-2.110133692622184753e-02
5.486395675688982010e-03,-1.356228458462283015e-04,-1.138322753831744194e-03,-1.792461052536964417e-02
1.370428013615310192e-03,-6.151934619992971420e-03,2.904699556529521942e-02,-1.384920557029545307e-03
2.215903811156749725e-02,-3.794155782088637352e-03,-2.213443815708160400e-02,9.496500715613365173e-04
-1.734569109976291656e-02,1.931656897068023682e-02,-2.239370346069335938e-02,6.590894423425197601e-03
1.693410612642765045e-02,-8.827896788716316223e-03,6.069899536669254303e-03,1.787180081009864807e-04
4.519254434853792191e-03,-1.050639315508306026e-03,4.558060783892869949e-03,-4.537142347544431686e-03
-8.759132586419582367e-03,-6.806589663028717041e-04,1.322344760410487652e-03,-9.004593011923134327e-04
-7.191161625087261200e-03,2.731855027377605438e-02,-6.894576828926801682e-03,5.865099374204874039e-03
-4.776233341544866562e-03,-2.354772947728633881e-02,-4.946169909089803696e-03,1.008829846978187561e-02
-4.277562722563743591e-03,5.055467598140239716e-03,-5.395193584263324738e-03,-3.669501049444079399e-03
1.091167144477367401e-02,-4.223139840178191662e-04,-2.377862110733985901e-02,-1.056230999529361725e-02
6.144828628748655319e-03,1.954907365143299103e-02,-1.291182124987244606e-03,3.823499719146639109e-05
9.593399241566658020e-03,-2.904062531888484955e-02,-1.015093643218278885e-03,-7.797418220434337854e-06
-1.079012872651219368e-04,2.379638142883777618e-02,2.664786006789654493e-04,-4.325270856497809291e-05
-1.846170343924313784e-04,6.422373000532388687e-03,-1.121448702178895473e-03,8.391374722123146057e-04
7.635412621311843395e-04,1.112574897706508636e-02,1.545376423746347427e-02,1.895486935973167419e-02
6.665133871138095856e-03,-2.357633039355278015e-02,1.209984906017780304e-02,-9.573278366588056087e-04
3.517453745007514954e-02,7.476423401385545731e-03,-3.920904360711574554e-03,8.771999273449182510e-04
2.423818921670317650e-03,2.660724148154258728e-02,-4.107313870918005705e-04,3.849531058222055435e-04
1.325548533350229263e-02,-4.830392077565193176e-03,-1.126471441239118576e-02,-1.117176376283168793e-03
3.869912121444940567e-03,-2.488175872713327408e-03,8.356373757123947144e-03,-7.220177794806659222e-04
-3.136362135410308838e-02,3.310311213135719299e-02,-5.605707410722970963e-03,-9.270492941141128540e-03
2.567411633208394051e-03,-2.757819741964340210e-02,-2.138441195711493492e-04,3.117636591196060181e-02
-2.303340705111622810e-03,3.458789142314344645e-04,2.707374747842550278e-03,-2.628023969009518623e-03
5.743845831602811813e-04,-1.489090936956927180e-04,5.143927875906229019e-03,-4.193674307316541672e-03
2.616751706227660179e-03,4.792431741952896118e-02,-2.802205085754394531e-02,-6.435307674109935760e-03
-8.508033119142055511e-03,-3.048152662813663483e-02,-3.192671760916709900e-02,2.268596552312374115e-02
1.185633800923824310e-02,6.319237290881574154e-04,-1.064203307032585144e-02,-9.883104357868432999e-04
-6.854751147329807281e-03,5.542646395042538643e-04,-1.938805170357227325e-02,-9.798199607757851481e-05
-1.660425681620836258e-03,4.964957013726234436e-02,-1.705786329694092274e-03,8.140309713780879974e-03
-3.116558655165135860e-04,-1.338742580264806747e-02,-5.058268550783395767e-03,3.980924561619758606e-02
4.483593162149190903e-03,1.890806667506694794e-02,6.021184381097555161e-03,-1.056666718795895576e-03
1.251228991895914078e-02,-1.347404439002275467e-02,-1.037015672773122787e-02,1.589515712112188339e-03
-2.213189727626740932e-04,-1.403223141096532345e-04,4.505102988332509995e-03,-9.677615016698837280e-03
8.600760484114289284e-04,1.459348481148481369e-03,-3.442166838794946671e-03,1.926583703607320786e-03
1.518920063972473145e-02,7.032137364149093628e-03,-1.270213979296386242e-03,-3.053108594031073153e-05
2.837527357041835785e-02,-4.791992250829935074e-03,-3.960752859711647034e-03,-4.339709877967834473e-03
-2.675612270832061768e-02,-6.109138485044240952e-04,2.115606702864170074e-02,8.389958180487155914e-03
5.029894784092903137e-02,-1.707145129330456257e-04,-2.203858084976673126e-02,6.206738296896219254e-03
-3.945922479033470154e-03,1.805949397385120392e-02,3.992246463894844055e-03,-9.656405076384544373e-03
8.387275040149688721e-03,-1.131261233240365982e-03,3.441310022026300430e-03,3.747371665667742491e-04
-3.556001931428909302e-03,-1.359363738447427750e-02,3.273308509960770607e-03,8.606555638834834099e-06
5.464592482894659042e-03,-2.851232653483748436e-03,-2.534213941544294357e-03,-6.284826667979359627e-04
1.102195214480161667e-02,1.043605501763522625e-03,-1.366996206343173981e-02,-1.566579937934875488e-02
1.908143237233161926e-02,7.812054245732724667e-04,-1.663554459810256958e-03,1.432556193321943283e-03
7.046603132039308548e-03,5.062023410573601723e-04,1.077967230230569839e-03,1.065089250914752483e-03
9.402547148056328297e-04,1.280297292396426201e-03,-1.281150802969932556e-02,8.994279778562486172e-04
-7.158052176237106323e-03,4.103932529687881470e-03,-5.314999143593013287e-04,-1.149160973727703094e-02
2.386105188634246588e-04,-2.381959639023989439e-04,-1.071209189831279218e-04,6.595068145543336868e-03
-2.490639500319957733e-02,-6.828784476965665817e-03,7.052083965390920639e-03,-6.613184232264757156e-03
-5.284551298245787621e-04,2.388478955253958702e-03,1.073483843356370926e-03,-6.447721971198916435e-04
1.866701059043407440e-03,2.743623219430446625e-02,-1.710738288238644600e-03,-1.165650086477398872e-03
4.402949125505983829e-04,-3.173453360795974731e-02,-4.801505710929632187e-04,7.724329829216003418e-03
-5.040860269218683243e-04,-2.480364928487688303e-04,1.504772226326167583e-03,-1.386022847145795822e-02
1.824228093028068542e-05,-1.621478935703635216e-03,-2.351636067032814026e-03,8.815718814730644226e-03
-7.927539991214871407e-05,-1.304629072546958923e-02,-1.643562689423561096e-02,3.566440194845199585e-03
6.032247329130768776e-04,2.154202200472354889e-02,1.688366569578647614e-02,-1.306890416890382767e-02
1.914300210773944855e-02,1.980558037757873535e-02,-5.317133851349353790e-03,-1.325959246605634689e-02
-9.157309308648109436e-03,9.526614099740982056e-03,1.507921842858195305e-03,-1.020260713994503021e-02
-2.497538225725293159e-03,-8.681324310600757599e-03,4.217886307742446661e-04,3.378511173650622368e-03
3.202958032488822937e-02,-2.579705091193318367e-03,-3.681074013002216816e-04,-2.086678752675652504e-03
2.099466975778341293e-03,6.829545833170413971e-03,3.285178169608116150e-02,-1.111570978537201881e-03
4.908413626253604889e-03,4.323650151491165161e-03,-2.329340763390064240e-02,-5.258076707832515240e-04
-3.587245009839534760e-03,-6.294678896665573120e-03,-3.814925439655780792e-04,-1.827132422477006912e-03
1.859816838987171650e-04,-1.369844935834407806e-02,2.569536445662379265e-04,1.890288293361663818e-02
6.711438298225402832e-03,1.404280494898557663e-02,-5.645372904837131500e-03,5.084709729999303818e-03
8.222154341638088226e-03,7.349497172981500626e-03,-2.570518292486667633e-03,2.184193348512053490e-03
2.639061072841286659e-03,1.023469958454370499e-02,-1.405812986195087433e-02,2.329015731811523438e-02
-8.485579863190650940e-03,-1.563468202948570251e-02,-1.131051592528820038e-02,4.917905107140541077e-02
-2.328816801309585571e-03,3.327154554426670074e-03,-4.655855707824230194e-03,-3.378453431650996208e-03
-1.838971860706806183e-02,1.974179758690297604e-05,-1.975527219474315643e-02,5.282543133944272995e-04
-9.925984777510166168e-04,-1.692259102128446102e-03,-5.333421286195516586e-04,-3.753193421289324760e-03
-2.062780782580375671e-03,1.228537596762180328e-02,3.968854143749922514e-04,1.961422897875308990e-02
-3.589683445170521736e-03,-2.988962223753333092e-04,-5.755928810685873032e-03,1.543690916150808334e-02
1.403004163876175880e-03,-4.201119299978017807e-03,-4.954484757035970688e-03,1.019427552819252014e-03
-1.137488242238759995e-02,6.463666912168264389e-03,-3.920330666005611420e-03,9.952436666935682297e-04
5.969252903014421463e-03,-8.432789705693721771e-03,-6.592423189431428909e-03,3.570721670985221863e-02
7.365394383668899536e-03,-9.199052583426237106e-04,6.090397364459931850e-04,-1.064952695742249489e-03
-6.550257676281034946e-04,-1.061491202563047409e-02,5.439985543489456177e-04,-1.236354466527700424e-03
1.453476306051015854e-02,8.040210232138633728e-03,8.590397192165255547e-04,-9.354626527056097984e-04
-2.115739043802022934e-03,-4.838046152144670486e-06,1.743103202898055315e-04,7.995501800905913115e-05
-2.100562490522861481e-02,-1.377175375819206238e-02,1.304243877530097961e-02,-1.694416068494319916e-02
-5.470278207212686539e-03,-1.328551582992076874e-02,-2.674747083801776171e-04,2.164189063478261232e-04
-3.074557287618517876e-03,-4.873070865869522095e-02,-3.661190392449498177e-03,1.938462024554610252e-03
3.111484646797180176e-02,-3.498369455337524414e-02,-1.722242683172225952e-02,-1.531987078487873077e-02
1.492558605968952179e-02,-1.250016037374734879e-02,-2.092722430825233459e-02,1.101770612876862288e-04
1.793973846361041069e-03,1.026683673262596130e-02,-9.357265196740627289e-03,2.897852798923850060e-03
1.721056527458131313e-03,1.024529244750738144e-02,-1.678477739915251732e-03,1.202245801687240601e-02
5.421508103609085083e-03,1.957475906237959862e-03,-1.370047975797206163e-04,-3.877258393913507462e-03
6.147142266854643822e-05,-2.404332533478736877e-02,1.492363121360540390e-02,-9.817512473091483116e-04
2.296929160365834832e-04,3.276851493865251541e-04,7.348347920924425125e-03,3.617873589973896742e-04
8.337795734405517578e-04,-3.220568224787712097e-02,8.799541974440217018e-04,-4.724032187368720770e-04
4.477735201362520456e-04,2.419479936361312866e-02,-9.906839113682508469e-04,8.725872612558305264e-04
4.630695562809705734e-03,-6.206179503351449966e-03,-1.338053587824106216e-02,5.952323321253061295e-03
-2.559385495260357857e-03,-6.773119326680898666e-03,6.993216928094625473e-03,5.074074491858482361e-03
-9.642761433497071266e-04,2.695612492971122265e-04,3.333197906613349915e-02,6.832772400230169296e-03
4.792865365743637085e-05,-9.536033030599355698e-04,2.889218367636203766e-02,7.025975501164793968e-04
-1.805406250059604645e-02,-4.309391952119767666e-04,1.259475294500589371e-02,2.071331068873405457e-02
3.764220327138900757e-02,-2.320701442658901215e-02,-1.434119231998920441e-02,3.534553572535514832e-03
-3.641678020358085632e-02,-3.689670469611883163e-03,2.422389201819896698e-02,7.089146878570318222e-03
4.040728881955146790e-02,-1.538650877773761749e-02,-1.891503669321537018e-02,4.444883204996585846e-03
1.718726195394992828e-02,-3.175108926370739937e-03,1.122588943690061569e-02,4.123872786294668913e-04
4.603268578648567200e-02,-4.018248990178108215e-02,-2.243112400174140930e-02,3.395596868358552456e-04
1.917052827775478363e-02,-1.860105805099010468e-02,-5.707066040486097336e-03,4.422431346029043198e-03
1.226167939603328705e-02,-2.627098932862281799e-02,-3.722161287441849709e-03,4.195292945951223373e-03
1.429545599967241287e-02,1.646748627535998821e-03,1.094418764114379883e-02,-9.411399514647200704e-05
1.643516123294830322e-02,-2.764580771327018738e-02,-1.050906535238027573e-02,-4.659880942199379206e-04
1.151640317402780056e-04,1.868903404101729393e-03,-6.574368569999933243e-03,1.824456267058849335e-02
4.474569577723741531e-04,2.364048268646001816e-03,-2.903769258409738541e-03,7.671991828829050064e-03
-3.326710721012204885e-04,-1.775250211358070374e-02,5.644068005494773388e-04,-1.006053481251001358e-02
7.721541915088891983e-04,2.676799334585666656e-02,5.361490184441208839e-04,-1.006386987864971161e-02
-3.679194487631320953e-04,5.260000005364418030e-02,-2.945009991526603699e-02,-2.533231861889362335e-03
-1.289759529754519463e-04,-2.459163777530193329e-02,-4.179032891988754272e-02,6.985661387443542480e-02
-3.765508881770074368e-04,6.828787270933389664e-03,-1.716740371193736792e-04,3.180721250828355551e-05
-2.429926971672102809e-04,-1.295201573520898819e-02,5.632835091091692448e-04,-7.310801884159445763e-04
-1.435345597565174103e-02,2.666038461029529572e-03,4.231955390423536301e-03,-3.399956622160971165e-04
-1.458044513128697872e-03,2.131045563146471977e-03,-1.202694140374660492e-02,7.223608554340898991e-04
-1.061142142862081528e-02,1.769304834306240082e-02,8.722109487280249596e-04,-1.788475364446640015e-02
1.470779813826084137e-02,7.257308810949325562e-03,1.496943761594593525e-03,-2.364300377666950226e-02
-1.665659621357917786e-02,1.876551844179630280e-02,4.844462964683771133e-03,-1.671956852078437805e-02
-2.228775061666965485e-02,-1.782949455082416534e-02,1.295424625277519226e-02,2.151849493384361267e-02
3.456872887909412384e-03,1.786820217967033386e-02,-2.086349017918109894e-02,-4.040508344769477844e-02
-1.078319270163774490e-03,-3.130663186311721802e-03,-1.294118072837591171e-02,-2.872747834771871567e-03
1.509134564548730850e-02,-3.454282879829406738e-03,-2.361599542200565338e-02,3.830722416751086712e-04
-1.583434455096721649e-02,-6.352512631565332413e-03,-7.050396408885717392e-03,6.382640451192855835e-03
-2.400851226411759853e-04,2.650146372616291046e-02,6.518953945487737656e-03,-1.540510635823011398e-02
-3.856503753922879696e-04,-6.684684194624423981e-03,3.374860808253288269e-02,-4.138116724789142609e-03
-1.787941716611385345e-02,5.293199792504310608e-04,6.767893210053443909e-04,2.303726784884929657e-02
1.316324155777692795e-02,-2.276520943269133568e-03,-1.296452013775706291e-03,1.434385962784290314e-02
-1.730597810819745064e-03,-9.930601809173822403e-04,-3.306072950363159180e-02,4.426734894514083862e-02
3.197852638550102711e-04,-3.589576575905084610e-03,3.479294851422309875e-02,6.173818837851285934e-04
-2.581786923110485077e-02,-6.724104168824851513e-04,-2.787529665511101484e-04,2.274418482556939125e-03
3.455563634634017944e-02,-3.740902058780193329e-03,-2.736103953793644905e-03,1.785218482837080956e-03
3.806266933679580688e-02,-4.029247444123029709e-03,8.905836148187518120e-04,-7.156764622777700424e-04
4.402658343315124512e-02,5.322705954313278198e-03,-1.566087477840483189e-03,1.162355532869696617e-03
-5.436441279016435146e-04,3.869816428050398827e-03,1.879832474514842033e-03,-5.074783693999052048e-03
7.635052897967398167e-04,6.231943611055612564e-03,-7.181203924119472504e-03,7.088643033057451248e-03
-1.772565580904483795e-02,2.399996109306812286e-02,-6.873341742902994156e-03,5.370850209146738052e-03
2.315729297697544098e-02,-3.547591716051101685e-02,-7.963144220411777496e-03,1.210615038871765137e-02
-1.423736382275819778e-02,-2.645923523232340813e-03,1.043613650836050510e-03,4.160493612289428711e-03
3.816326148808002472e-03,3.032256383448839188e-03,1.314021181315183640e-03,-1.168683753348886967e-03
2.236729487776756287e-04,-8.425796404480934143e-03,9.669907391071319580e-03,-3.021149896085262299e-03
4.808345402125269175e-04,-1.356978085823357105e-03,-8.798160706646740437e-04,2.032887889072299004e-03
-1.732804998755455017e-02,-1.095123495906591415e-02,1.418460626155138016e-02,-2.712318208068609238e-03
-1.005489751696586609e-02,6.733878049999475479e-03,-4.502921365201473236e-04,-1.040189643390476704e-03
3.389908233657479286e-03,2.387174777686595917e-02,-1.113259792327880859e-02,-2.869569510221481323e-02
-1.010062638670206070e-02,3.059513983316719532e-04,-4.845883522648364305e-04,1.263095065951347351e-02
-3.718038205988705158e-04,4.062837362289428711e-02,-2.460953593254089355e-02,-1.460168790072202682e-02
6.472168024629354477e-05,9.090381674468517303e-03,-2.531252801418304443e-02,3.171120584011077881e-02
3.308791201561689377e-03,-3.206155449151992798e-02,-1.529431669041514397e-03,-8.287921082228422165e-04
1.197607605718076229e-03,-1.117291161790490150e-03,-3.693878650665283203e-03,-1.001391327008605003e-03
-2.454109722748398781e-03,-1.198763400316238403e-02,2.181570418179035187e-02,1.395954895997419953e-04
6.498550064861774445e-03,-2.566772885620594025e-02,-1.880598813295364380e-02,4.760035080835223198e-04
9.591306559741497040e-03,2.693452872335910797e-03,1.398434769362211227e-02,-2.228859812021255493e-02
1.195056270807981491e-02,6.492299027740955353e-03,-2.805229276418685913e-02,-8.259743917733430862e-04
-1.395398285239934921e-02,-2.820099331438541412e-02,1.252584275789558887e-03,5.765901412814855576e-03
-1.068030542228370905e-05,2.775692264549434185e-04,1.065178308635950089e-03,1.096952240914106369e-03
9.242547675967216492e-03,1.424273708835244179e-03,2.423123829066753387e-02,7.658934919163584709e-04
-7.920702337287366390e-04,-1.312391087412834167e-02,-3.879908844828605652e-02,8.470097091048955917e-04
-1.852837949991226196e-02,-1.301777199842035770e-03,-5.526440218091011047e-03,-6.073924247175455093e-03
-6.775366142392158508e-03,4.599255044013261795e-04,2.302131056785583496e-02,-2.729421854019165039e-02
-6.876573897898197174e-04,1.376180257648229599e-02,2.243035240098834038e-03,-4.007083829492330551e-03
-2.643163083121180534e-03,-1.085118949413299561e-02,-1.651079510338604450e-03,-3.870141226798295975e-04
9.503379464149475098e-03,-2.714529167860746384e-03,7.969005033373832703e-03,2.203138545155525208e-03
1.375728566199541092e-02,-1.541082002222537994e-02,-1.281938236206769943e-02,-1.040900871157646179e-02
2.409441955387592316e-02,1.843510009348392487e-02,-8.798433467745780945e-03,3.419658867642283440e-03
-2.240794710814952850e-02,8.130473084747791290e-03,-5.072061903774738312e-03,-8.385317400097846985e-03
4.789692466147243977e-04,-8.551346138119697571e-03,2.053233038168400526e-04,-3.826431930065155029e-05
-5.063714925199747086e-04,-1.742659136652946472e-02,-5.333077860996127129e-04,-1.247629802674055099e-02
-1.080197934061288834e-02,-1.083636470139026642e-02,-1.277913153171539307e-02,-1.257528085261583328e-02
2.065094187855720520e-03,-1.576402806676924229e-03,-1.538973394781351089e-02,1.692685531452298164e-03
1.867443061200901866e-04,8.071986027061939240e-03,-1.670263148844242096e-02,1.114053372293710709e-02
-1.748511567711830139e-04,-4.315193276852369308e-03,-8.775800466537475586e-03,5.677495151758193970e-02
-1.825676736189052463e-04,1.892088912427425385e-03,-2.430411987006664276e-02,-2.413982525467872620e-03
2.919927937909960747e-04,-3.315939754247665405e-02,-1.374313328415155411e-02,1.975760236382484436e-02
-3.767554881051182747e-05,1.381891220808029175e-02,1.903040148317813873e-02,-1.830529421567916870e-02
2.138562704203650355e-04,2.436228562146425247e-03,-6.272859871387481689e-03,6.446026731282472610e-03
-1.256165327504277229e-03,-6.565799005329608917e-03,3.543282672762870789e-02,-2.682636957615613937e-03
-4.126927349716424942e-03,1.208601333200931549e-02,2.338959835469722748e-02,-3.103938419371843338e-03
-5.503557622432708740e-04,-3.420666232705116272e-02,7.187803275883197784e-04,1.461857743561267853e-02
-2.458553935866802931e-04,-3.848163178190588951e-04,8.191984379664063454e-04,-3.052521497011184692e-04
4.924641689285635948e-04,2.124196849763393402e-02,-2.313385903835296631e-02,-7.418845198117196560e-04
1.042368821799755096e-04,-3.532337024807929993e-03,-1.435263175517320633e-02,1.440213061869144440e-02
1.706410758197307587e-02,6.280404631979763508e-04,-3.816253738477826118e-03,-1.042273640632629395e-02
-1.146213058382272720e-02,-7.179792155511677265e-04,2.504083327949047089e-03,-1.704259589314460754e-02
-1.675540930591523647e-03,2.529435092583298683e-03,-8.150454610586166382e-03,5.245082080364227295e-03
-1.520545128732919693e-02,-4.531840095296502113e-04,2.017267746850848198e-03,-1.428797375410795212e-03
-1.287075877189636230e-02,-7.306659128516912460e-03,-7.123343646526336670e-03,5.094945430755615234e-02
-3.026675991714000702e-02,-8.066599257290363312e-03,-2.935298485681414604e-03,7.409122306853532791e-03
-1.578041352331638336e-03,2.642959728837013245e-02,-6.762299221009016037e-03,1.012801472097635269e-02
-4.217076639179140329e-04,-2.234302833676338196e-02,-5.280686542391777039e-03,1.037090551108121872e-02
9.374918881803750992e-04,-2.874203724786639214e-03,-1.616168767213821411e-03,-2.601851010695099831e-03
-7.136863423511385918e-04,1.842185668647289276e-02,-4.423699341714382172e-03,4.484347067773342133e-03
3.948070108890533447e-03,4.201051779091358185e-04,4.847914911806583405e-03,-1.493384828791022301e-03
-1.964290067553520203e-02,5.098865367472171783e-04,-9.017952717840671539e-03,-2.403034159215167165e-04
-6.046473048627376556e-03,1.408066228032112122e-02,-3.619140712544322014e-03,-1.234145718626677990e-03
2.829663688316941261e-03,-8.407918736338615417e-03,1.555204507894814014e-03,-9.269698639400303364e-04
5.011080065742135048e-05,1.660151034593582153e-02,5.866237916052341461e-04,-1.509640831500291824e-03
1.073002349585294724e-04,4.934130702167749405e-03,-1.730554038658738136e-03,1.500518061220645905e-03
-2.234598621726036072e-02,1.511239819228649139e-02,1.861550263129174709e-03,8.535157889127731323e-03
-7.561368402093648911e-03,1.342807337641716003e-02,4.836995154619216919e-03,2.336939651286229491e-04
1.415865495800971985e-02,4.906632821075618267e-04,-3.816523123532533646e-03,-1.514585688710212708e-03
-5.010354798287153244e-04,-4.577951622195541859e-04,2.417993964627385139e-03,3.838479460682719946e-04
-2.080712467432022095e-03,3.616918809711933136e-03,-1.579879201017320156e-03,-3.716894425451755524e-03
5.232114344835281372e-03,-5.201493389904499054e-03,6.922185420989990234e-04,1.427626609802246094e-02
-6.795998197048902512e-04,2.420767769217491150e-02,-1.650732301641255617e-04,-3.676053020171821117e-04
6.972381379455327988e-04,1.377321593463420868e-02,3.258269978687167168e-03,-1.476128469221293926e-03
5.788015201687812805e-03,4.106293490622192621e-04,-9.634422138333320618e-03,-1.007979153655469418e-03
-4.825557582080364227e-03,3.589525294955819845e-04,-7.533412426710128784e-03,-2.619522856548428535e-04
5.594522692263126373e-03,-1.515142899006605148e-02,1.951386453583836555e-03,-1.575972884893417358e-02
6.031599477864801884e-04,-2.581239386927336454e-04,2.027121809078380466e-06,-6.128912791609764099e-03
-2.724992297589778900e-02,-7.264504674822092056e-04,4.992685839533805847e-02,-6.803542841225862503e-03
3.675588592886924744e-02,1.430849777534604073e-03,-4.378841444849967957e-02,-1.179178594611585140e-03
2.189957723021507263e-02,1.094134431332349777e-02,8.293937426060438156e-04,-2.535662986338138580e-02
2.543791197240352631e-04,-6.083574844524264336e-04,2.975563984364271164e-05,1.802822388708591461e-02
-1.171243749558925629e-02,2.111432887613773346e-02,-3.638550406321883202e-04,-6.776812020689249039e-03
-1.218099985271692276e-02,-1.932915113866329193e-02,-2.450005523860454559e-02,5.600856151431798935e-03
-2.809555153362452984e-04,2.139586256816983223e-03,-2.116290270350873470e-04,3.238453995436429977e-03
1.605549477972090244e-04,-2.327784895896911621e-02,1.634568162262439728e-02,1.146071311086416245e-02
-1.927673444151878357e-02,2.141018863767385483e-03,2.207610523328185081e-03,-6.321735680103302002e-03
1.806731708347797394e-02,6.984326057136058807e-03,7.069605635479092598e-05,-5.905298050493001938e-03
2.225834131240844727e-02,4.990925081074237823e-04,5.763385561294853687e-04,-3.940996248275041580e-03
-9.511371026746928692e-04,3.303127305116504431e-04,-1.875652000308036804e-03,4.448614490684121847e-04
-2.066997811198234558e-03,-7.168067386373877525e-04,-2.333637792617082596e-03,1.010462269186973572e-02
1.681011635810136795e-04,-1.118137314915657043e-02,-5.486332345753908157e-03,1.101967296563088894e-03
-4.050347954034805298e-03,8.292110578622668982e-06,-5.192157998681068420e-02,9.338558302260935307e-04
-3.200122714042663574e-02,-1.707575283944606781e-04,-3.688556328415870667e-02,6.446140818297863007e-03
6.197953596711158752e-03,-5.079241935163736343e-03,9.989291429519653320e-03,-2.627627225592732430e-03
1.281137112528085709e-03,2.516178973019123077e-02,-2.176303183659911156e-03,-2.904658205807209015e-02
-1.984096015803515911e-04,-2.710310369729995728e-02,1.329007465392351151e-02,-8.456040173768997192e-03
1.884489320218563080e-02,-2.885404741391539574e-03,-9.183948859572410583e-03,-1.257998123764991760e-02
-2.276893705129623413e-02,-3.469377756118774414e-03,6.322337314486503601e-03,1.380441011860966682e-03
-1.431789249181747437e-02,5.133801139891147614e-03,9.117729496210813522e-04,5.013742949813604355e-03
1.190600171685218811e-02,9.415431879460811615e-03,8.905252325348556042e-04,-6.989247049205005169e-04
-2.846629172563552856e-02,9.313612245023250580e-03,-3.929092083126306534e-03,2.507717814296483994e-03
1.397141348570585251e-02,1.691970508545637131e-03,-1.921118982136249542e-02,-1.686565810814499855e-04
-1.465029455721378326e-02,4.370449110865592957e-03,1.705272868275642395e-02,-1.841166056692600250e-03
3.138213651254773140e-04,3.796862810850143433e-02,-3.629008680582046509e-02,-1.744824834167957306e-02
3.043636388611048460e-04,-2.833585627377033234e-02,-3.309050574898719788e-02,6.228586658835411072e-02
-1.419389713555574417e-02,-3.004233585670590401e-04,4.204226657748222351e-02,5.814792821183800697e-04
6.398113910108804703e-03,-1.472141593694686890e-04,5.396096967160701752e-03,-9.398888214491307735e-04
-5.842285696417093277e-03,-1.112076279241591692e-04,6.625850684940814972e-03,1.233893708558753133e-04
2.057684585452079773e-03,-3.393072111066430807e-04,5.036853253841400146e-03,-4.863743204623460770e-03
-3.665099851787090302e-03,-5.619092378765344620e-03,3.354304656386375427e-02,-7.525215914938598871e-05
7.108588237315416336e-03,-2.232363913208246231e-03,-1.345032081007957458e-02,-2.819809742504730821e-05
1.622795825824141502e-04,7.981943897902965546e-03,-6.755440845154225826e-04,1.652059436310082674e-04
-5.484853754751384258e-04,-3.700661472976207733e-03,-1.090518897399306297e-03,8.423270774073898792e-04
1.443512458354234695e-02,-3.003606689162552357e-04,8.271364495158195496e-04,-7.017407333478331566e-04
4.728226922452449799e-04,-2.205243567004799843e-03,6.515033543109893799e-03,-4.558519460260868073e-03
-2.260056324303150177e-02,-1.462022867053747177e-02,1.344138523563742638e-03,-1.871099881827831268e-02
1.612323103472590446e-05,2.587792929261922836e-03,1.000678457785397768e-04,9.095889399759471416e-04
5.905886646360158920e-03,1.138076372444629669e-02,1.283256709575653076e-02,6.331902462989091873e-03
2.745558274909853935e-03,3.136196732521057129e-02,-3.498819191008806229e-03,-3.356551285833120346e-03
8.950897026807069778e-04,4.235847666859626770e-02,1.152542303316295147e-03,-1.163650583475828171e-02
3.427444491535425186e-03,1.020555105060338974e-02,5.529905320145189762e-04,1.929444819688796997e-02
4.455582238733768463e-03,3.124750684946775436e-03,1.273722271434962749e-03,-6.222760421223938465e-04
8.789065759629011154e-06,-2.550889272242784500e-03,8.008936129044741392e-05,3.355120861670002341e-05
-2.643443876877427101e-03,-1.803389750421047211e-02,-4.812269937247037888e-03,1.723930984735488892e-02
6.493406835943460464e-04,-1.415503397583961487e-02,-5.812957417219877243e-03,2.085175365209579468e-02
-4.253694321960210800e-03,4.273116588592529297e-03,-1.969605684280395508e-02,9.652591310441493988e-03
1.013443339616060257e-03,-6.177802570164203644e-04,-3.899675235152244568e-02,1.604988612234592438e-02
1.096434704959392548e-02,-1.469727139919996262e-03,5.742254434153437614e-04,-8.677539881318807602e-04
-7.675006520003080368e-03,-7.454899605363607407e-05,1.173412660136818886e-03,6.887749768793582916e-04
5.747203249484300613e-03,-2.290638163685798645e-02,1.040925621055066586e-03,-2.210589736932888627e-04
7.858383469283580780e-03,-3.016229718923568726e-02,1.939472625963389874e-03,-5.595726543106138706e-04
-1.348053570836782455e-02,2.289476105943322182e-04,1.865151338279247284e-02,-6.192972068674862385e-04
-2.007081359624862671e-02,-7.561147212982177734e-04,1.460952963680028915e-02,-1.638170360820367932e-04
9.666683152318000793e-03,-1.519472245126962662e-02,6.246437318623065948e-03,-7.481405511498451233e-03
9.741227142512798309e-03,7.915315218269824982e-03,7.055325550027191639e-04,-1.227301545441150665e-03
-9.182197973132133484e-03,-1.217883400386199355e-04,1.100237667560577393e-02,-1.188974641263484955e-02
-9.900209493935108185e-03,6.417519762180745602e-05,1.250804681330919266e-02,5.308232270181179047e-03
2.084529725834727287e-03,5.931585095822811127e-03,1.123457448557019234e-03,4.849926102906465530e-03
5.101283546537160873e-03,1.591776870191097260e-02,-5.897175869904458523e-04,-3.073004074394702911e-03
2.057334640994668007e-03,6.679870188236236572e-03,4.773194086737930775e-04,-1.747748581692576408e-03
-8.386322297155857086e-03,-1.789359562098979950e-02,9.533693082630634308e-04,8.538790047168731689e-03
6.307451520115137100e-03,-3.253333270549774170e-02,3.361201286315917969e-02,3.525060601532459259e-04
-1.412919838912785053e-03,-1.805535517632961273e-02,-3.570206090807914734e-02,7.317162235267460346e-04
-1.077994145452976227e-02,-1.777730882167816162e-03,2.677872963249683380e-02,4.976941272616386414e-04
8.601393550634384155e-03,-4.498137859627604485e-04,-8.680392056703567505e-03,1.263619749806821346e-03
-5.186055786907672882e-04,1.063553267158567905e-03,-1.761453895596787333e-04,-1.701696892268955708e-03
-1.473280135542154312e-04,4.428756074048578739e-04,8.343888912349939346e-04,-7.430295809172093868e-04
7.586395367980003357e-04,1.838144659996032715e-02,-1.395948231220245361e-03,-6.467072758823633194e-03
-4.443131620064377785e-04,-5.890985019505023956e-03,-8.297705790027976036e-04,1.120913773775100708e-02
7.582037709653377533e-03,3.301902487874031067e-02,-1.797075569629669189e-02,3.519127494655549526e-04
1.747317612171173096e-02,-1.528843492269515991e-02,-7.416143547743558884e-03,1.708263880573213100e-05
1.920031150802969933e-03,-1.603103801608085632e-02,3.527110069990158081e-02,-1.716297306120395660e-02
-5.723042413592338562e-03,7.768779247999191284e-02,3.211256489157676697e-02,-2.038416825234889984e-02
5.260834586806595325e-05,8.244883269071578979e-03,-1.055369805544614792e-02,1.115887542255222797e-03
-1.326947822235524654e-04,1.190053299069404602e-02,-5.270433612167835236e-03,3.968181088566780090e-03
-1.392491394653916359e-03,-1.525680068880319595e-03,6.777130765840411186e-04,-9.633722365833818913e-04
2.461194526404142380e-06,9.361022966913878918e-04,1.464179949834942818e-03,-3.085515345446765423e-04
-3.593933652155101299e-04,6.932995282113552094e-03,-1.831065863370895386e-02,5.253089126199483871e-03
-1.914908061735332012e-04,-5.999121814966201782e-03,-5.472253542393445969e-03,6.349106319248676300e-03
4.891788703389465809e-04,-2.865638956427574158e-02,1.024824567139148712e-02,-7.268921006470918655e-03
-1.275905687361955643e-02,1.334613887593150139e-03,1.513951865490525961e-04,4.834895022213459015e-03
4.248923156410455704e-03,2.497184462845325470e-02,6.397731136530637741e-03,4.224718082696199417e-03
1.124714850448071957e-03,2.787422563415020704e-04,7.315379567444324493e-03,-6.687680142931640148e-04
-1.463428791612386703e-02,9.373553097248077393e-03,2.174452529288828373e-04,-9.465441107749938965e-03
6.817222572863101959e-03,6.329059135168790817e-03,-2.359399222768843174e-04,-8.176868781447410583e-03
-3.587074950337409973e-02,1.541015040129423141e-02,-1.737498678267002106e-02,2.420050092041492462e-03
6.797987222671508789e-02,1.457678154110908508e-04,-7.749933004379272461e-02,8.856107480823993683e-03
1.517774071544408798e-04,2.998852403834462166e-03,-1.080834772437810898e-02,-9.953477419912815094e-04
3.371300117578357458e-04,1.082181115634739399e-03,-4.119671415537595749e-03,1.305104000493884087e-03
9.232669253833591938e-04,1.413408853113651276e-02,1.328034559264779091e-03,-2.118986845016479492e-02
4.029960837215185165e-04,1.027040998451411724e-03,-7.789229275658726692e-04,3.332840511575341225e-03
-2.753660082817077637e-04,-1.987023511901497841e-03,-6.719228345900774002e-03,1.033770572394132614e-02
-4.486582474783062935e-05,1.854698359966278076e-02,-1.586828730069100857e-03,-9.094004053622484207e-04
-1.077192020602524281e-03,-6.007062736898660660e-03,-2.356290630996227264e-02,4.496455658227205276e-03
3.693297971040010452e-03,2.018832787871360779e-02,-5.612467415630817413e-03,1.742752827703952789e-02
-2.739078365266323090e-02,4.388607339933514595e-04,-4.427892155945301056e-03,9.490919299423694611e-03
-1.429387461394071579e-02,7.554632611572742462e-04,1.114265900105237961e-02,-4.777826834470033646e-03
-3.474947065114974976e-02,1.211487036198377609e-02,1.762676797807216644e-02,-6.992006208747625351e-03
2.819834917318075895e-04,-1.832274347543716431e-02,-2.442100958433002234e-04,8.759595220908522606e-04
1.352553442120552063e-02,-6.632115691900253296e-04,7.852104492485523224e-03,-5.080439615994691849e-03
-6.029076408594846725e-03,2.656248863786458969e-03,-4.357023281045258045e-04,-1.365077914670109749e-03
-7.451817393302917480e-03,-1.568180974572896957e-03,3.930330276489257812e-02,-5.350830033421516418e-03
7.947918958961963654e-03,3.054448752664029598e-04,-2.449347637593746185e-02,-1.297937240451574326e-03
-7.351969927549362183e-02,3.573146648705005646e-03,6.178451329469680786e-02,1.318354159593582153e-02
5.987318698316812515e-03,-8.068893104791641235e-03,2.498484589159488678e-02,-3.314042463898658752e-03
-2.934183226898312569e-03,-1.593682914972305298e-02,-4.668224719353020191e-04,1.297697052359580994e-02
-1.580990501679480076e-04,2.578497398644685745e-03,-7.568792207166552544e-04,1.139078289270401001e-02
-1.905545219779014587e-02,2.977185649797320366e-04,7.045831298455595970e-04,3.154690610244870186e-03
1.286260411143302917e-02,-1.741437881719321012e-04,8.112806244753301144e-04,-1.738514006137847900e-02
-8.652234100736677647e-04,1.040009036660194397e-02,-7.550307200290262699e-04,-7.238000165671110153e-03
2.476061345078051090e-04,-5.649668630212545395e-03,1.166129950433969498e-03,6.198165938258171082e-03
1.937236404046416283e-03,2.155630849301815033e-03,1.095456629991531372e-02,-6.304446142166852951e-03
-2.329571358859539032e-02,1.838154159486293793e-02,2.514901012182235718e-02,-1.803225488401949406e-03
4.688034765422344208e-03,3.795586153864860535e-02,-1.027142978273332119e-03,5.984878516755998135e-04
-1.930688507854938507e-02,4.025897383689880371e-02,3.507174924015998840e-02,-1.833117450587451458e-03
-9.258468635380268097e-03,-1.146789733320474625e-02,-3.348802216351032257e-03,1.505912654101848602e-02
1.354949735105037689e-02,2.355328761041164398e-02,8.139627752825617790e-04,-1.331195980310440063e-02
-1.208813954144716263e-02,-3.872429952025413513e-02,3.700365126132965088e-02,-8.734395960345864296e-04
1.590430503711104393e-03,-2.960521727800369263e-03,-8.527152240276336670e-03,1.710626529529690742e-04
-1.985869184136390686e-02,3.873277455568313599e-02,5.711712292395532131e-04,-1.558624953031539917e-02
-7.915767841041088104e-03,2.263642847537994385e-02,-4.573324404191225767e-04,-1.021503587253391743e-03
-4.345425986684858799e-04,1.165311085060238838e-03,4.350689239799976349e-03,4.748931620270013809e-03
3.266950137913227081e-03,7.081410149112343788e-04,-4.334378056228160858e-03,-7.194732897914946079e-04
-1.327214576303958893e-02,2.379065938293933868e-02,-4.437503218650817871e-02,-4.844436887651681900e-03
-7.595848757773637772e-03,-7.157304789870977402e-03,7.647668477147817612e-03,2.082225837511941791e-04
3.117741784080862999e-03,7.569625973701477051e-03,-6.896365899592638016e-03,3.258552169427275658e-03
1.000878028571605682e-02,-9.983034804463386536e-03,-2.417127136141061783e-03,6.296165287494659424e-03
-1.019818522036075592e-02,-1.921213231980800629e-02,-9.353671222925186157e-03,2.294298075139522552e-02
-1.380614191293716431e-02,-3.059453517198562622e-02,2.384919673204421997e-03,1.078619714826345444e-02
-1.034332439303398132e-03,4.697963595390319824e-05,4.998602904379367828e-03,5.448546260595321655e-03
-7.726610056124627590e-05,-1.071179867722094059e-03,-5.073041189461946487e-03,1.491391914896667004e-03
-3.798760473728179932e-03,-1.082307286560535431e-02,3.750804439187049866e-02,-8.308383985422551632e-05
2.064090035855770111e-02,-6.596221122890710831e-03,-3.229888156056404114e-02,1.344644697383046150e-04
1.139476150274276733e-02,7.455113809555768967e-04,7.706108735874295235e-04,-1.261310651898384094e-02
2.306307666003704071e-03,-2.585430338513106108e-04,1.674658560659736395e-04,-9.709259495139122009e-03
1.783619448542594910e-02,-2.763806376606225967e-03,-2.089907228946685791e-02,2.415179833769798279e-02
6.402980536222457886e-03,-2.549018710851669312e-03,-8.103790692985057831e-03,9.420321322977542877e-03
3.346375655382871628e-03,1.486558932811021805e-03,-1.925794593989849091e-02,-1.831746660172939301e-03
1.540651358664035797e-02,-1.577508635818958282e-03,9.269515983760356903e-03,-6.584235467016696930e-03
2.552053704857826233e-02,7.715541869401931763e-06,2.238270454108715057e-02,-1.202889159321784973e-02
3.673376888036727905e-02,-3.029821626842021942e-02,1.333171385340392590e-04,-5.935142398811876774e-04
2.707684645429253578e-03,7.689312042202800512e-05,-3.443138441070914268e-03,-7.787368958815932274e-04
1.171319454442709684e-04,1.210379227995872498e-02,-2.971681067720055580e-03,1.524892519228160381e-03
-2.158735692501068115e-02,-2.747833263128995895e-03,5.601060763001441956e-02,-5.366407567635178566e-04
1.838586479425430298e-02,-4.602381377480924129e-04,-1.949455216526985168e-02,-2.513129438739269972e-04
5.286181811243295670e-03,2.709724358282983303e-04,9.006162290461361408e-04,-1.511176349595189095e-03
6.711401045322418213e-03,6.067726644687354565e-04,1.268670195713639259e-03,-1.719224674161523581e-04
-2.249140106141567230e-02,-3.783721476793289185e-04,-5.586520303040742874e-03,6.069519091397523880e-03
7.482500746846199036e-03,-1.309722138103097677e-04,-7.367211510427296162e-04,2.063594944775104523e-02
-1.049167569726705551e-02,9.877991396933794022e-05,1.510951016098260880e-02,-1.200131955556571484e-03
-8.418827317655086517e-03,-1.683981390669941902e-04,2.879638923332095146e-03,-1.700503868050873280e-03
2.002638764679431915e-03,8.845803095027804375e-04,-2.595786470919847488e-03,-2.337680663913488388e-03
1.151941530406475067e-02,1.630563638173043728e-04,-3.192587522789835930e-03,-5.570351495407521725e-04
1.997130177915096283e-02,-4.426353052258491516e-02,4.564297944307327271e-02,-6.264301948249340057e-03
3.618954867124557495e-02,-1.649267785251140594e-02,-1.485432870686054230e-02,-1.398654188960790634e-03
-3.795223310589790344e-02,-2.661306224763393402e-02,1.068301033228635788e-02,-9.512949734926223755e-03
5.366842448711395264e-02,9.860243881121277809e-04,-8.472587913274765015e-03,-2.549325581640005112e-03
5.250638350844383240e-04,-1.696925796568393707e-02,2.542044594883918762e-02,-5.945963785052299500e-04
-9.863200830295681953e-06,-1.365047646686434746e-03,-2.378793805837631226e-02,5.880456883460283279e-04
-2.424441277980804443e-03,-1.800343976356089115e-03,4.807483404874801636e-03,-1.110514276660978794e-03
1.058904454112052917e-02,4.020989313721656799e-02,-8.455549366772174835e-03,5.593368550762534142e-04
1.851152628660202026e-02,-1.041076984256505966e-02,-1.441853237338364124e-03,9.027777239680290222e-03
1.732246764004230499e-02,-1.569711416959762573e-02,2.254868595628067851e-04,3.195025026798248291e-03
-9.674520231783390045e-03,-1.792981475591659546e-02,1.174518489278852940e-03,-1.286816503852605820e-02
-7.680678972974419594e-04,1.633980078622698784e-03,5.886463448405265808e-03,-8.209655061364173889e-03
1.326974714174866676e-03,2.438019728288054466e-04,3.250725334510207176e-03,5.069795588497072458e-05
-4.984885454177856445e-03,1.996168866753578186e-04,4.595851060003042221e-03,-1.408280222676694393e-04
-4.283824563026428223e-02,6.701551610603928566e-04,-4.488791746553033590e-04,5.633522756397724152e-03
1.122742146253585815e-02,8.814734173938632011e-04,2.674574730917811394e-03,-1.857937313616275787e-02
-1.077210716903209686e-02,-1.473092008382081985e-02,-3.001703589688986540e-05,-5.353070795536041260e-03
3.409148007631301880e-02,6.918744184076786041e-03,-3.961454704403877258e-02,1.413214136846363544e-03
-9.878599084913730621e-03,1.482033543288707733e-02,8.871130412444472313e-04,-1.790998619981110096e-03
-2.259925566613674164e-02,-2.558080246672034264e-03,-5.483574699610471725e-03,4.729604348540306091e-03
-2.635100670158863068e-02,-7.394279818981885910e-04,1.462995726615190506e-02,-2.405510982498526573e-03
1.634192839264869690e-02,1.295732217840850353e-03,-9.335525333881378174e-03,7.797993719577789307e-03
-3.924779128283262253e-03,1.329138223081827164e-02,4.080981016159057617e-03,-5.251936148852109909e-03
2.219418622553348541e-02,1.754954829812049866e-02,-1.797433011233806610e-02,-2.153526293113827705e-03
-2.330833813175559044e-04,3.167960792779922485e-02,-2.649206854403018951e-02,6.777531467378139496e-03
2.722733770497143269e-04,-3.324759751558303833e-02,6.590854376554489136e-03,6.180498749017715454e-03
-5.422528833150863647e-03,-3.192107542417943478e-04,3.185349702835083008e-02,-1.156754512339830399e-02
-2.175243198871612549e-02,-6.645138491876423359e-04,-6.731751374900341034e-03,2.759144408628344536e-03
-2.473934181034564972e-02,-2.470649313181638718e-03,-1.285269623622298241e-03,3.078490844927728176e-04
4.413267131894826889e-03,7.169884629547595978e-03,-1.881514675915241241e-02,-3.120010485872626305e-03
8.419987745583057404e-03,6.161011406220495701e-04,2.597436076030135155e-03,-8.348895236849784851e-03
5.967501201666891575e-04,2.054991200566291809e-04,-7.059449329972267151e-03,-1.192864868789911270e-02
3.874812740832567215e-03,-1.792084798216819763e-02,-4.246496129781007767e-03,-1.024072407744824886e-03
-9.446649346500635147e-05,6.342361681163311005e-03,-1.587869599461555481e-02,1.248089130967855453e-03
-2.920703496783971786e-03,-1.511618960648775101e-03,1.486702822148799896e-02,-1.294310949742794037e-02
2.152495551854372025e-03,-6.139966426417231560e-04,-1.539757382124662399e-02,4.232883453369140625e-03
-1.503478363156318665e-02,-1.150099560618400574e-03,-5.127646727487444878e-04,1.395816216245293617e-04
-8.356455713510513306e-03,-1.497702766209840775e-02,8.037425868678838015e-05,1.109780278056859970e-03
1.903660222887992859e-02,-3.543381020426750183e-02,1.305198529735207558e-03,-3.204197390004992485e-03
1.988485018955543637e-04,3.586877835914492607e-03,-1.332090760115534067e-04,7.810235256329178810e-04
7.829456590116024017e-04,1.183395832777023315e-02,-2.967389067634940147e-03,-2.925967425107955933e-02
-1.058845687657594681e-02,5.577408708631992340e-03,-3.329545143060386181e-04,3.206663951277732849e-02
1.092402380891144276e-04,2.006091922521591187e-02,-2.010875381529331207e-03,-9.843132458627223969e-03
1.774115953594446182e-04,-4.020033031702041626e-02,-7.195665035396814346e-03,4.926153644919395447e-02
1.077071856707334518e-02,-6.039429455995559692e-03,3.078973153606057167e-03,-9.262219537049531937e-04
1.849118247628211975e-02,-2.297080121934413910e-03,-1.069268211722373962e-02,3.937274217605590820e-03
2.001475170254707336e-02,-2.815115964040160179e-03,2.259945031255483627e-03,5.921119591221213341e-04
-6.407178007066249847e-03,-4.041010979562997818e-03,-2.739677391946315765e-02,4.126232815906405449e-04
1.951286569237709045e-02,1.720245694741606712e-03,-5.029660463333129883e-02,7.927796803414821625e-03
-1.999224349856376648e-02,-1.618934050202369690e-02,7.639576680958271027e-03,-5.408122669905424118e-04
-3.038015775382518768e-02,1.137002743780612946e-02,-2.414112095721065998e-04,-1.236701151356101036e-03
-1.468078419566154480e-02,-7.570601534098386765e-03,9.027141641126945615e-05,-1.001583132892847061e-02
-2.798092924058437347e-02,1.951800845563411713e-02,7.997811771929264069e-03,-7.026978419162333012e-04
-9.817338548600673676e-03,9.036228992044925690e-03,-3.748823422938585281e-03,-1.055424334481358528e-03
2.332275733351707458e-03,2.475510910153388977e-02,-7.051850203424692154e-03,1.666123862378299236e-03
-1.533923298120498657e-02,3.335800766944885254e-02,-7.177808787673711777e-03,6.200798321515321732e-03
-1.400689687579870224e-02,2.022815309464931488e-02,1.050701551139354706e-02,-1.222963328473269939e-03
-4.938596393913030624e-03,-6.785255856812000275e-03,4.650020971894264221e-03,1.781385391950607300e-03
1.514718774706125259e-02,-5.715772276744246483e-04,1.141781220212578773e-03,-6.058269646018743515e-03
-2.143206074833869934e-06,1.449367380701005459e-03,1.200773403979837894e-03,-2.820270508527755737e-02
1.393603044562041759e-03,3.867781488224864006e-03,3.369543002918362617e-03,-5.068243946880102158e-03
-4.999408265575766563e-04,1.230605295859277248e-03,1.939376583322882652e-03,-1.595368376001715660e-03
-1.866761944256722927e-03,-7.069426588714122772e-03,2.077607205137610435e-03,2.769596176221966743e-04
2.479554386809468269e-03,2.866475144401192665e-03,8.333602454513311386e-04,-2.046301960945129395e-03
-1.105046644806861877e-02,3.058270376641303301e-04,-1.931008324027061462e-02,1.276037655770778656e-02
-1.624952256679534912e-02,-1.409264048561453819e-03,-9.909173473715782166e-03,-2.534893865231424570e-04
-2.443540375679731369e-03,-8.027278818190097809e-05,8.083923603408038616e-04,-9.328655432909727097e-04
1.682879053987562656e-03,-2.210996754001826048e-04,-7.715779356658458710e-04,1.851693028584122658e-03
-1.092054508626461029e-02,-1.077215652912855148e-02,-2.370007336139678955e-02,1.031547691673040390e-02
2.066755667328834534e-02,2.153736539185047150e-02,9.249409660696983337e-03,-1.028598984703421593e-03
-6.547520402818918228e-03,-2.080832608044147491e-02,1.747094281017780304e-02,1.547225983813405037e-04
5.597779154777526855e-02,-1.551509927958250046e-02,-2.154893800616264343e-02,-4.911369760520756245e-04
2.039099854300729930e-05,1.536123733967542648e-02,-5.121896392665803432e-04,4.027994291391223669e-04
-3.994212020188570023e-04,5.683514755219221115e-03,1.141562126576900482e-03,-2.620609593577682972e-04
-1.921427436172962189e-02,5.340049043297767639e-03,-1.400028588250279427e-03,3.559739328920841217e-03
1.195893622934818268e-03,-5.688244942575693130e-03,-5.059995222836732864e-03,1.657193154096603394e-02
2.655039355158805847e-02,-4.128197324462234974e-04,-4.331411421298980713e-02,5.168351810425519943e-03
1.852538436651229858e-02,-4.815206862986087799e-03,1.533101778477430344e-02,1.032689958810806274e-02
3.517001168802380562e-03,1.789114437997341156e-02,-5.676887230947613716e-04,4.010632110293954611e-04
-8.232363499701023102e-03,1.914677210152149200e-02,1.195459044538438320e-03,-1.191682880744338036e-03
-1.233970001339912415e-02,-6.174006965011358261e-03,-2.163856290280818939e-02,-2.576112514361739159e-03
-1.441993005573749542e-02,1.380956545472145081e-02,-2.076564542949199677e-02,-9.184791124425828457e-04
1.057789893820881844e-03,-4.716758057475090027e-02,2.671552821993827820e-03,1.654380466789007187e-03
-9.410052443854510784e-04,-4.564694128930568695e-03,2.199613663833588362e-04,-3.976104781031608582e-04
-1.410416327416896820e-02,1.181385479867458344e-03,-5.786496680229902267e-03,1.513306889683008194e-02
4.269447177648544312e-03,1.334888627752661705e-03,1.026534591801464558e-03,1.801074855029582977e-02
2.546963514760136604e-05,-4.658463876694440842e-05,-4.514383617788553238e-03,1.279210951179265976e-02
-3.561679914128035307e-04,1.066105091013014317e-03,1.738009788095951080e-02,-7.724149618297815323e-03
3.677557921037077904e-03,1.790268719196319580e-02,9.415264939889311790e-04,-6.822206196375191212e-04
6.789555191062390804e-04,4.779256880283355713e-03,-3.851989749819040298e-04,7.373524131253361702e-04
-2.085663145408034325e-04,-4.731278494000434875e-02,7.552827242761850357e-03,2.762137912213802338e-02
-1.415900187566876411e-04,4.825947806239128113e-02,-1.259732339531183243e-02,-4.522930458188056946e-02
-3.359211841598153114e-04,1.527579384855926037e-03,-2.027848735451698303e-02,-1.101122144609689713e-02
2.499147551134228706e-03,1.251055509783327579e-03,-1.164269819855690002e-02,1.611035200767219067e-03
-8.058409439399838448e-04,4.693296505138278008e-04,-4.421917721629142761e-03,-5.939115770161151886e-03
6.498583592474460602e-03,4.919237690046429634e-04,-2.539104968309402466e-02,4.021016415208578110e-03
1.113269291818141937e-02,-3.946881741285324097e-03,2.366193570196628571e-03,-1.395334722474217415e-03
7.361575961112976074e-03,2.206693869084119797e-03,-1.253271196037530899e-02,-7.718623382970690727e-04
-9.249099530279636383e-03,-1.487352605909109116e-02,-4.438535775989294052e-03,-9.205484762787818909e-03
1.380875054746866226e-02,-1.199366757646203041e-03,-1.343132578767836094e-03,2.513819560408592224e-02
-6.639996543526649475e-03,3.439755178987979889e-03,-2.892882563173770905e-02,-5.272921640425920486e-03
-8.934500510804355145e-05,-2.406711864750832319e-04,1.733365841209888458e-02,1.529889414086937904e-03
2.603948581963777542e-03,-4.386113956570625305e-03,1.301085483282804489e-02,-1.186925335787236691e-03
2.863971516489982605e-03,8.065985515713691711e-03,-2.126853726804256439e-02,-8.308970136567950249e-04
-7.339045405387878418e-03,-2.338116988539695740e-03,1.096434332430362701e-02,-6.347335875034332275e-04
1.358143053948879242e-02,-2.693355083465576172e-03,2.598186023533344269e-03,5.048926919698715210e-03
-4.571703902911394835e-04,1.820336468517780304e-02,6.226142868399620056e-04,-8.918346837162971497e-03
1.051315339282155037e-04,-7.289857603609561920e-03,1.003646058961749077e-03,-1.041061710566282272e-03
-1.101582078263163567e-03,-1.584300189279019833e-03,5.332757253199815750e-03,2.927104651462286711e-04
2.994767855852842331e-03,-1.553479814901947975e-03,-3.447589650750160217e-02,-3.300164826214313507e-04
1.197672914713621140e-02,-2.111565880477428436e-02,1.519326586276292801e-03,8.997094118967652321e-04
2.571037597954273224e-02,-1.875522732734680176e-02,-1.185609959065914154e-03,-3.797413592110387981e-05
9.695377200841903687e-03,3.618266200646758080e-04,7.479485124349594116e-03,-2.257439121603965759e-02
-1.801097241695970297e-04,-3.599416231736540794e-04,-3.422017674893140793e-03,7.197970058768987656e-03
4.241702612489461899e-03,-2.119197510182857513e-03,-2.199747227132320404e-02,-2.707204781472682953e-03
1.197636520373634994e-04,2.828330732882022858e-03,3.463225811719894409e-02,2.707435982301831245e-03
8.834813488647341728e-04,-7.019529002718627453e-04,3.266651183366775513e-02,-2.756463736295700073e-02
-1.973436679691076279e-03,7.867546519264578819e-04,4.466934874653816223e-02,-3.427258133888244629e-02
-3.022843785583972931e-02,7.513933815062046051e-05,1.197870634496212006e-02,-2.748728147707879543e-04
-2.686975896358489990e-02,-1.758576603606343269e-03,2.501596137881278992e-02,1.111621153540909290e-03
-6.997518939897418022e-04,9.048240026459097862e-04,-2.248062752187252045e-03,-5.746058188378810883e-03
-2.079101686831563711e-04,-1.431366661563515663e-03,6.178070325404405594e-04,1.109207421541213989e-02
-2.800608053803443909e-02,1.827115565538406372e-02,2.579487115144729614e-02,1.097028423100709915e-02
-1.541249081492424011e-02,-1.803213357925415039e-02,1.613819599151611328e-02,-2.761777490377426147e-02
1.053129089996218681e-04,1.583892852067947388e-02,-1.309061655774712563e-03,1.065298356115818024e-02
-3.313070337753742933e-04,-6.443780846893787384e-03,-7.441133726388216019e-03,-1.094854250550270081e-02
-3.587682172656059265e-02,-6.334742996841669083e-03,8.830431848764419556e-03,1.158913131803274155e-03
3.354870527982711792e-02,2.664275001734495163e-03,-2.313780225813388824e-02,-5.881681572645902634e-04
7.933568558655679226e-04,2.436700835824012756e-02,1.782663166522979736e-03,-1.326630637049674988e-02
-9.410296916030347347e-04,1.125740539282560349e-02,-1.688800519332289696e-03,-1.064206287264823914e-02
-1.440404332242906094e-03,2.015055343508720398e-02,1.234397944062948227e-02,-9.789688047021627426e-04
1.791116228559985757e-04,-6.572722923010587692e-03,1.306025311350822449e-03,2.800350775942206383e-04
-8.100539445877075195e-03,-4.174200817942619324e-03,1.108581316657364368e-03,-1.123028341680765152e-03
1.289568003267049789e-02,3.941359464079141617e-03,1.116716652177274227e-03,-4.155827045906335115e-04
-1.731741800904273987e-02,3.496880526654422283e-04,1.640885509550571442e-02,2.339552622288465500e-03
-1.466364786028862000e-02,-1.158398925326764584e-03,1.641935855150222778e-02,4.116697702556848526e-03
1.917841657996177673e-02,-4.337114514783024788e-04,-1.965058327186852694e-04,-8.635526173748075962e-04
-7.493020966649055481e-03,7.939796196296811104e-04,-1.852573128417134285e-03,4.854850703850388527e-05
-1.417111326009035110e-02,2.661217469722032547e-03,-5.721130874007940292e-04,-8.061926928348839283e-04
-1.922606676816940308e-02,7.702854461967945099e-03,1.663449336774647236e-03,2.263918577227741480e-04
2.305506728589534760e-03,-2.055635489523410797e-02,1.044608769007027149e-03,-8.136887103319168091e-03
1.054842770099639893e-02,2.669669315218925476e-02,9.145999210886657238e-04,-3.774095675908029079e-04
-7.588509470224380493e-04,-2.573764510452747345e-02,1.188543997704982758e-02,-8.218828006647527218e-04
9.261711966246366501e-05,6.955413846299052238e-05,-2.114981599152088165e-02,-2.801625814754515886e-04
-1.969991996884346008e-02,-1.184796332381665707e-03,3.239523246884346008e-02,-1.116000488400459290e-02
1.287257764488458633e-02,-1.721375249326229095e-02,-6.482321023941040039e-02,1.188145251944661140e-03
1.662786863744258881e-02,1.761964638717472553e-03,-8.423409890383481979e-04,-3.421410219743847847e-03
-8.440406527370214462e-04,8.780785836279392242e-03,-9.854976087808609009e-04,1.436851336620748043e-03
-2.201844193041324615e-02,9.486777125857770443e-04,3.860772820189595222e-03,-8.019946981221437454e-04
1.096229534596204758e-03,-1.157144550234079361e-03,1.892140251584351063e-03,3.904568264260888100e-03
2.577053010463714600e-02,1.245768740773200989e-02,-1.560928765684366226e-02,-1.365827396512031555e-03
-1.307930797338485718e-03,2.683483064174652100e-03,3.035922301933169365e-03,5.735469050705432892e-03
-1.505868392996490002e-03,5.268590757623314857e-04,7.849685498513281345e-04,1.083719916641712189e-02
2.160542644560337067e-04,7.113491883501410484e-04,1.393400831148028374e-03,1.088411919772624969e-02
-1.427206769585609436e-02,-6.062341853976249695e-04,1.345971948467195034e-03,-1.382958842441439629e-03
-1.736332662403583527e-02,-2.329809404909610748e-02,4.550025623757392168e-04,-3.854293026961386204e-06
-2.924197167158126831e-02,3.981386870145797729e-02,-1.925979275256395340e-03,-3.498122096061706543e-03
-7.733542588539421558e-06,-8.220258750952780247e-04,-5.847509019076824188e-03,1.309865247458219528e-02
-1.848593354225158691e-02,-1.712446846067905426e-02,1.130613032728433609e-02,-1.859554089605808258e-02
1.299438881687819958e-03,7.751973345875740051e-03,-7.879795506596565247e-03,7.837982266210019588e-04
-2.622769027948379517e-02,-4.739769268780946732e-03,-2.983603067696094513e-02,1.371349301189184189e-02
2.177383005619049072e-02,-1.184799056500196457e-02,2.265413105487823486e-02,-2.517084032297134399e-02
4.807737190276384354e-03,2.184068551287055016e-03,2.325661480426788330e-02,-1.116207521408796310e-02
-4.214936494827270508e-02,1.988318935036659241e-02,1.485303626395761967e-03,-2.257344126701354980e-02
8.166940882802009583e-03,1.830184366554021835e-03,2.493479847908020020e-02,-5.966663826256990433e-03
1.571664237417280674e-03,-1.018525799736380577e-04,-4.088554531335830688e-03,5.882467958144843578e-04
1.845626975409686565e-04,-3.355729859322309494e-03,3.922475874423980713e-02,-1.230127178132534027e-02
-6.673252210021018982e-04,3.901466028764843941e-03,5.864358041435480118e-03,-2.918810583651065826e-02
4.483922384679317474e-04,6.704346742480993271e-04,2.351039089262485504e-03,1.582686416804790497e-02
-3.732106415554881096e-04,-1.543196290731430054e-02,-2.856871346011757851e-03,-1.669847755692899227e-03
-5.170109216123819351e-04,3.349877521395683289e-02,9.002419537864625454e-04,-7.829295471310615540e-03
-2.075987868010997772e-04,1.381303369998931885e-02,-1.587409293279051781e-03,1.072221435606479645e-03
-1.174617465585470200e-02,3.755947109311819077e-04,1.240092446096241474e-03,4.926738794893026352e-03
7.185078226029872894e-03,-1.533744274638593197e-03,-4.507747013121843338e-03,1.046236604452133179e-02
-1.408197358250617981e-02,-1.319662202149629593e-03,1.043215394020080566e-03,-4.708504769951105118e-03
2.881283871829509735e-02,-5.687694647349417210e-04,1.218408229760825634e-03,-1.028116559609770775e-03
1.467524468898773193e-02,8.332462981343269348e-03,-2.894256322178989649e-04,-4.266333766281604767e-03
-2.898006513714790344e-02,-3.356502391397953033e-03,-5.388568621128797531e-03,3.677250817418098450e-02
9.749875403940677643e-03,1.981159439310431480e-04,1.077432651072740555e-02,-8.638781146146357059e-04
1.023348304443061352e-03,1.112662255764007568e-03,1.534152659587562084e-03,-5.668897647410631180e-04
1.540067023597657681e-04,-1.819767756387591362e-03,-1.439697924070060253e-03,3.840038925409317017e-02
4.426696978043764830e-04,7.656124653294682503e-04,-1.248169410973787308e-02,6.192381493747234344e-03
2.411255612969398499e-03,-1.880589500069618225e-02,5.397289618849754333e-02,9.766409173607826233e-03
1.640950143337249756e-02,-2.151982672512531281e-02,-2.234386466443538666e-02,-3.238956560380756855e-04
6.236773333512246609e-05,1.012103632092475891e-03,-4.360158741474151611e-02,1.570141315460205078e-02
-2.673570998013019562e-03,5.642075557261705399e-04,1.650535687804222107e-02,3.290842473506927490e-02
2.918954193592071533e-02,5.945161916315555573e-03,-8.794165216386318207e-03,-3.342456882819533348e-03
3.846217878162860870e-03,1.696241670288145542e-04,1.689730415819212794e-04,2.922749263234436512e-04
2.468972466886043549e-03,1.367494231089949608e-03,6.444875034503638744e-04,-6.105165230110287666e-04
5.698187160305678844e-04,2.697067335247993469e-03,-4.473568405956029892e-03,4.246474243700504303e-03
-3.205684712156653404e-03,1.226425915956497192e-02,1.270661689341068268e-02,2.812836610246449709e-04
8.169446140527725220e-03,-6.073830649256706238e-03,-1.322835311293601990e-02,-9.350031177746132016e-05
1.373182330280542374e-02,-3.935300046578049660e-04,-7.673265063203871250e-04,4.803420510143041611e-03
3.777389600872993469e-02,-3.126100637018680573e-04,-1.255508163012564182e-03,3.049966180697083473e-04
1.390985678881406784e-02,9.564147330820560455e-04,6.106483633629977703e-04,-1.200182596221566200e-03
7.616851944476366043e-03,1.238281838595867157e-03,4.471291904337704182e-04,-2.634444739669561386e-03
-1.102977897971868515e-02,-5.137206171639263630e-04,-5.668191704899072647e-03,7.086917757987976074e-03
1.677579618990421295e-02,-8.971291827037930489e-04,-1.236555539071559906e-02,5.687678698450326920e-03
-5.445138085633516312e-04,6.020391825586557388e-03,1.553325448185205460e-03,2.127808332443237305e-02
9.882124140858650208e-04,-1.658296957612037659e-02,2.637009136378765106e-02,-1.815333962440490723e-03
-7.638288661837577820e-04,7.504338864237070084e-04,-3.022685996256768703e-05,1.567250117659568787e-03
1.324366312474012375e-03,-3.630790859460830688e-03,-3.416292835026979446e-03,4.412378743290901184e-02
-3.282255725935101509e-03,-1.463994733057916164e-03,2.627170830965042114e-02,1.541939564049243927e-03
-6.399503443390130997e-03,8.739409386180341244e-04,7.899490185081958771e-03,-2.805753378197550774e-03
2.897070255130529404e-03,1.580784656107425690e-02,1.379643916152417660e-03,-1.123994588851928711e-02
1.578825525939464569e-02,2.406341955065727234e-03,-5.794235039502382278e-04,-7.752605248242616653e-03
1.891845022328197956e-04,-7.458872161805629730e-03,1.317623187787830830e-03,-2.468941733241081238e-02
4.848171665798872709e-04,-5.443015834316611290e-04,2.084812382236123085e-03,3.202451160177588463e-03
1.396742463111877441e-02,9.867704939097166061e-04,-1.963030360639095306e-02,-2.435141429305076599e-02
2.966002793982625008e-04,8.822636445984244347e-04,-8.004111237823963165e-03,-1.644782163202762604e-02
-1.540711149573326111e-02,-2.343931235373020172e-02,-2.982142381370067596e-03,4.578421264886856079e-02
-2.926449524238705635e-03,2.456539683043956757e-02,-7.127344142645597458e-03,5.735542625188827515e-03
-3.155410813633352518e-04,4.249622579663991928e-04,-1.662636362016201019e-02,9.038196876645088196e-03
9.541330509819090366e-04,-1.312386011704802513e-04,4.574555438011884689e-03,-2.443257719278335571e-03
-2.180058695375919342e-02,2.570803742855787277e-03,-5.335685797035694122e-03,-4.245381278451532125e-04
-1.875586109235882759e-03,-1.865254156291484833e-02,1.340035349130630493e-03,-8.943289867602288723e-04
-9.351368062198162079e-03,-4.507652297616004944e-02,2.348073571920394897e-02,4.506601952016353607e-03
7.723603397607803345e-03,1.977613195776939392e-02,2.654892764985561371e-02,-3.853143751621246338e-02
-1.027377601712942123e-02,3.649556636810302734e-02,-6.082988344132900238e-03,-6.926821544766426086e-03
4.672906361520290375e-03,-5.115298088639974594e-03,3.403193783015012741e-03,-2.004599198698997498e-03
3.538092598319053650e-02,1.023248478304594755e-04,-5.022176075726747513e-03,3.693630453199148178e-03
-2.800288982689380646e-02,6.297358195297420025e-04,1.823633909225463867e-02,-1.293686800636351109e-03
1.939788344316184521e-04,-1.176047232002019882e-02,9.916872950270771980e-04,-3.571596927940845490e-03
5.325520760379731655e-05,-1.942185685038566589e-02,-1.386491465382277966e-03,2.167721977457404137e-03
-4.465457168407738209e-04,-3.055261448025703430e-03,8.629692718386650085e-03,-1.236250274814665318e-03
5.250837421044707298e-04,-3.619430353865027428e-04,1.019762456417083740e-02,-8.641366148367524147e-04
-2.456641988828778267e-03,2.533413469791412354e-02,-1.082720886915922165e-02,7.868767715990543365e-03
-1.989283226430416107e-02,-2.777212299406528473e-03,-1.160624437034130096e-02,3.962272033095359802e-02
2.020694373641163111e-04,-2.698694355785846710e-03,-4.073863383382558823e-03,6.599710881710052490e-02
-1.832027919590473175e-02,1.081182900816202164e-02,-5.678567569702863693e-03,-6.727732252329587936e-03
-1.104211260098963976e-04,-5.648747552186250687e-03,-1.312827877700328827e-02,-7.972386665642261505e-04
2.605975023470818996e-04,5.929196253418922424e-03,-1.945055206306278706e-03,3.791098948568105698e-03
-8.324969676323235035e-04,-6.533028557896614075e-03,2.450446970760822296e-02,-7.282285369001328945e-04
1.254769449587911367e-04,-2.614224504213780165e-04,5.057871807366609573e-03,8.823955431580543518e-04
7.618922973051667213e-05,1.758498838171362877e-04,7.013417780399322510e-03,4.426283296197652817e-03
2.865748829208314419e-04,-8.153996895998716354e-05,-6.982331397011876106e-04,1.540003577247262001e-03
-6.767887971363961697e-04,-7.634270936250686646e-03,3.085553180426359177e-04,-1.346438075415790081e-03
-6.842996226623654366e-04,1.673951558768749237e-02,1.353963511064648628e-03,-4.360896127764135599e-06
-1.223629107698798180e-03,5.582933314144611359e-03,2.302395878359675407e-04,-5.391021259129047394e-03
-1.875992165878415108e-04,1.723334565758705139e-02,5.791356088593602180e-04,1.977690868079662323e-02
-9.199539199471473694e-03,-2.420958597213029861e-03,-8.477684110403060913e-03,9.800595231354236603e-03
-2.832416631281375885e-02,3.406036878004670143e-03,-1.408216427080333233e-03,-3.787392517551779747e-03
3.120023175142705441e-04,-4.597069695591926575e-03,1.058537047356367111e-03,1.050876174122095108e-02
-3.779270220547914505e-03,4.028346738778054714e-04,-3.940407186746597290e-03,7.084039971232414246e-03
-3.125659748911857605e-02,-1.646290905773639679e-02,8.086855523288249969e-03,5.120737478137016296e-04
-1.633780822157859802e-02,4.915338475257158279e-03,-3.783741703955456614e-05,3.688500873977318406e-05
-3.196403384208679199e-03,-1.754230447113513947e-02,7.597438059747219086e-03,1.081997179426252842e-03
3.403362643439322710e-04,7.751908153295516968e-03,5.315021844580769539e-04,9.507795330137014389e-04
-1.944965682923793793e-02,-1.819930039346218109e-03,1.100597903132438660e-03,1.296976953744888306e-02
1.949995639733970165e-03,-2.199528738856315613e-03,-5.612063221633434296e-03,2.471672743558883667e-02
5.199179984629154205e-03,8.240752504207193851e-05,2.354171883780509233e-04,1.023893337696790695e-02
-1.284962985664606094e-02,-2.905883127823472023e-03,3.733307239599525928e-04,3.251595050096511841e-02
-1.478020567446947098e-02,9.555802680552005768e-03,3.664788324385881424e-03,-2.603417448699474335e-02
-4.333395138382911682e-02,3.554162383079528809e-02,6.798741873353719711e-03,-5.167641863226890564e-02
2.173166163265705109e-02,5.247137160040438175e-04,3.145522624254226685e-02,-1.252682064659893513e-03
-2.874855883419513702e-02,-1.115968218073248863e-03,3.022991493344306946e-02,3.338505513966083527e-03
1.076782122254371643e-02,-1.985619310289621353e-03,-9.629456326365470886e-03,-6.681480444967746735e-03
2.479517646133899689e-02,3.419616026803851128e-03,1.629189774394035339e-02,-1.952708140015602112e-02
1.438728300854563713e-03,-6.715161143802106380e-04,-4.543705377727746964e-03,-1.238320115953683853e-02
6.248892168514430523e-04,-7.396913133561611176e-04,-3.023727796971797943e-02,2.573483623564243317e-03
3.155865520238876343e-02,1.078394893556833267e-02,-3.731046570464968681e-03,-1.480013597756624222e-02
9.121979586780071259e-03,-1.861621253192424774e-02,8.232529507949948311e-04,-1.322460826486349106e-03
2.233909815549850464e-02,7.605860941112041473e-03,-2.089481987059116364e-02,-9.339029784314334393e-04
5.494548007845878601e-03,-1.984021440148353577e-02,5.038812290877103806e-03,4.895360674709081650e-03
-3.594311419874429703e-05,4.572445759549736977e-04,-6.255035754293203354e-03,4.954588133841753006e-03
-6.417735130526125431e-04,2.195592969655990601e-04,3.824684303253889084e-03,-9.934108238667249680e-04
8.185674669221043587e-04,2.624925691634416580e-03,1.089007477276027203e-03,5.585005972534418106e-03
3.274850314483046532e-04,7.800236344337463379e-04,2.809347119182348251e-03,3.063256153836846352e-04
1.665075542405247688e-03,8.802005322650074959e-05,-1.011730520986020565e-03,1.177971251308917999e-03
-6.495503708720207214e-03,-7.308956264751031995e-05,-5.580031313002109528e-03,3.226368129253387451e-02
-2.972322516143321991e-02,8.315755985677242279e-05,2.700550714507699013e-03,-1.259546726942062378e-03
3.059180080890655518e-02,1.587742473930120468e-03,-2.188730053603649139e-03,1.432390185073018074e-03
-7.143977563828229904e-03,1.412519998848438263e-02,-6.318783271126449108e-04,-1.223975326865911484e-02
6.894614547491073608e-03,-1.044340431690216064e-02,5.628746002912521362e-04,1.610147021710872650e-02
-2.986256591975688934e-02,4.116052296012639999e-04,4.866638686507940292e-03,-2.033579861745238304e-03
-2.638737298548221588e-02,-3.000975411850959063e-04,-3.022272605448961258e-03,2.420928515493869781e-02
2.400680677965283394e-03,2.413458656519651413e-03,-2.489850157871842384e-04,1.446585357189178467e-02
-1.999873295426368713e-02,-9.562301449477672577e-03,8.361304062418639660e-04,3.847868181765079498e-03
1.637224107980728149e-02,-2.036612480878829956e-02,6.559087196364998817e-04,8.507487364113330841e-03
5.438251886516809464e-03,1.796131767332553864e-02,-9.808516129851341248e-03,-3.437065519392490387e-03
3.116033971309661865e-03,-3.773219510912895203e-02,2.631376124918460846e-02,-6.574038416147232056e-04
-2.670745924115180969e-02,-2.204691991209983826e-02,-3.829095745459198952e-03,-1.641146373003721237e-04
-6.250080652534961700e-03,-2.756756171584129333e-02,1.008738297969102859e-02,-6.806483026593923569e-03
4.300635308027267456e-03,1.034195348620414734e-02,8.583935908973217010e-03,-8.615752449259161949e-04
-2.145412564277648926e-02,4.750064108520746231e-03,1.074990630149841309e-02,5.845570005476474762e-03
-6.906397640705108643e-03,-7.004388025961816311e-04,3.873705863952636719e-03,2.046189829707145691e-02
5.047601647675037384e-03,-8.502544835209846497e-03,1.573584415018558502e-02,-1.805597543716430664e-02
2.378365024924278259e-07,-3.811188973486423492e-03,2.511495724320411682e-03,1.593205030076205730e-03
-2.771771978586912155e-03,1.066502649337053299e-02,-9.180367924273014069e-03,3.621084033511579037e-05
3.214259399101138115e-03,-5.635673645883798599e-03,1.347545767202973366e-03,-7.884050864959135652e-05
1.989048905670642853e-03,-1.231276243925094604e-02,2.527959179133176804e-03,-1.774127595126628876e-03
9.275804273784160614e-03,-8.046945556998252869e-03,-5.303215701133012772e-03,-1.670120470225811005e-02
8.689524838700890541e-05,-3.321943804621696472e-03,-5.934839136898517609e-03,-2.710304223001003265e-03
-3.427050542086362839e-04,-2.434504404664039612e-02,-1.152997184544801712e-02,1.345964032225310802e-03
-5.397433787584304810e-02,-6.135730654932558537e-04,2.582632564008235931e-02,8.366814581677317619e-04
9.994584135711193085e-03,4.182533302810043097e-04,-8.345534093677997589e-03,7.796705467626452446e-04
-1.371658174321055412e-03,-1.876482507213950157e-03,8.527965401299297810e-04,1.150097418576478958e-02
8.953408687375485897e-04,1.074530766345560551e-03,1.150730997323989868e-03,1.373680680990219116e-02
2.431629598140716553e-02,3.396201878786087036e-03,-9.439410641789436340e-04,-2.055184543132781982e-02
-3.041894175112247467e-02,-6.661928491666913033e-04,1.434925128705799580e-03,1.357005257159471512e-02
-7.669687038287520409e-04,-5.896368063986301422e-03,9.047443047165870667e-03,3.835587296634912491e-03
4.216318484395742416e-03,8.563153445720672607e-03,-8.016893640160560608e-03,9.822638705372810364e-03
1.091769058257341385e-02,-3.163522924296557903e-04,-6.876299157738685608e-04,5.709597608074545860e-04
1.263476721942424774e-02,3.077978617511689663e-04,8.623913163319230080e-04,-2.221430622739717364e-05
-8.525443263351917267e-03,1.876500807702541351e-02,-1.453127339482307434e-02,1.125283259898424149e-02
-1.441338751465082169e-02,-3.484292654320597649e-03,-1.123485248535871506e-02,2.431164123117923737e-02
-1.769465161487460136e-03,-6.119057070463895798e-04,9.870468638837337494e-03,4.828257951885461807e-03
-3.924120217561721802e-03,-2.917002188041806221e-03,4.662830848246812820e-03,2.641083206981420517e-03
-1.550959795713424683e-02,1.579329487867653370e-03,6.704332772642374039e-04,-1.150264753960072994e-03
3.374051302671432495e-03,-2.016191428992897272e-04,-1.799804973416030407e-03,2.141188830137252808e-03
-8.713949471712112427e-03,1.417328231036663055e-02,-3.295208513736724854e-02,4.236516542732715607e-04
-1.363884657621383667e-02,-3.446076810359954834e-02,2.524177730083465576e-02,6.018211133778095245e-04
-3.076779656112194061e-03,3.139814361929893494e-02,-1.267878338694572449e-02,-1.009086705744266510e-02
-1.653396710753440857e-02,-1.307703647762537003e-02,-1.849535107612609863e-02,6.119196768850088120e-03
2.606688439846038818e-02,-4.281639587134122849e-03,-2.097632270306348801e-03,5.958705209195613861e-03
-1.811004430055618286e-02,-5.136484280228614807e-03,1.833586394786834717e-02,-9.933562017977237701e-03
-9.949707426130771637e-03,-2.739742922130972147e-04,1.279157400131225586e-02,2.353082410991191864e-02
1.223462400957942009e-03,-3.444470930844545364e-04,5.022736731916666031e-03,-1.724534668028354645e-02
9.261657483875751495e-03,-2.350626513361930847e-02,-6.237491616047918797e-04,-1.052763080224394798e-03
9.313426562584936619e-04,-2.099789306521415710e-02,-7.885018363595008850e-03,9.814281947910785675e-04
-2.253699116408824921e-03,2.454475872218608856e-02,-1.366451475769281387e-02,4.710857756435871124e-03
-2.184021286666393280e-05,-2.292237058281898499e-02,-9.795917198061943054e-03,6.895961239933967590e-03
-3.983582137152552605e-04,1.344743650406599045e-03,2.309107687324285507e-03,-1.442879205569624901e-03
5.793879972770810127e-05,-1.090089674107730389e-03,6.703252904117107391e-03,-1.327917445451021194e-03
-1.624770089983940125e-02,1.028167665936052799e-03,-2.900561690330505371e-02,1.322633586823940277e-03
-2.288030087947845459e-02,1.132366526871919632e-02,-7.909265346825122833e-03,-1.094110426492989063e-03
1.456848625093698502e-02,9.291486348956823349e-04,1.242383033968508244e-03,-4.689134075306355953e-04
9.442600421607494354e-03,3.114175342489033937e-04,-5.470197647809982300e-04,-1.071305014193058014e-03
4.457248747348785400e-02,-4.214888066053390503e-02,5.220949649810791016e-03,-1.134765706956386566e-02
3.591836988925933838e-02,-1.313264295458793640e-02,-2.285293070599436760e-03,-2.239953354001045227e-02
2.489657839760184288e-03,2.401852747425436974e-03,4.954009782522916794e-03,-3.424434736371040344e-02
5.116968415677547455e-03,-1.532574649900197983e-02,-9.221872314810752869e-04,-2.033660374581813812e-02
-9.301435202360153198e-03,-4.781143506988883018e-04,-9.268218651413917542e-03,-1.478677499108016491e-03
-1.851361943408846855e-03,1.892251311801373959e-03,1.315871719270944595e-02,-1.031675492413341999e-03
-1.577516086399555206e-03,-3.301930055022239685e-02,1.359165273606777191e-02,5.687926430255174637e-03
1.686219498515129089e-02,-1.316803321242332458e-02,-1.202227175235748291e-02,-1.314429217018187046e-03
-1.514392253011465073e-02,-1.604276360012590885e-03,-4.512832500040531158e-03,-1.262644189409911633e-03
2.864986658096313477e-02,-2.112712338566780090e-02,2.274371945532038808e-04,-5.582710728049278259e-03
5.644013639539480209e-03,3.745772689580917358e-02,-8.658325299620628357e-03,-3.003002516925334930e-02
-1.284647639840841293e-02,-4.169026855379343033e-03,-1.286666188389062881e-02,2.117562852799892426e-02
-1.638961397111415863e-02,-1.087407674640417099e-02,1.395850069820880890e-02,-6.471758708357810974e-03
1.666162163019180298e-02,-4.536239430308341980e-03,2.125368081033229828e-02,2.672710688784718513e-04
-7.452792488038539886e-05,4.183690994977951050e-03,-1.685015857219696045e-02,-5.220884922891855240e-04
-3.807436733040958643e-04,1.395550498273223639e-04,-5.939819966442883015e-04,5.781573709100484848e-04
5.732935387641191483e-04,-4.538482055068016052e-03,-2.854165504686534405e-04,-5.565375904552638531e-04
3.427933552302420139e-04,-1.085424795746803284e-03,-2.796805929392576218e-04,3.884352336172014475e-04
-2.582204155623912811e-02,5.143501330167055130e-04,3.530699061229825020e-03,1.625707931816577911e-02
-6.178975570946931839e-03,-9.952023392543196678e-04,6.432277150452136993e-04,-1.659759506583213806e-02
2.547715604305267334e-02,-1.199580635875463486e-02,2.119668573141098022e-02,3.654470294713973999e-02
4.474104568362236023e-02,-3.389096260070800781e-02,-2.721187099814414978e-02,-9.984456934034824371e-03
-1.436684560030698776e-02,8.561795111745595932e-04,9.059672011062502861e-04,-1.525472942739725113e-02
1.260481495410203934e-02,-2.543007140047848225e-04,-1.402613270329311490e-04,9.638494811952114105e-03
1.451352494768798351e-03,1.661969581618905067e-04,-2.787096425890922546e-03,2.348919957876205444e-02
-1.780702173709869385e-02,-1.040050876326858997e-03,7.213006261736154556e-03,2.603545412421226501e-02
-1.846218667924404144e-02,-1.352976821362972260e-02,8.385048713535070419e-04,-9.264748659916222095e-04
-7.233496289700269699e-04,2.216553082689642906e-03,-4.218810703605413437e-03,4.269271623343229294e-03
-4.571274388581514359e-03,-1.224970910698175430e-02,-1.517947763204574585e-02,2.830771263688802719e-03
2.638291567564010620e-03,-1.576505950652062893e-03,1.408071350306272507e-02,-9.319916367530822754e-03
-1.480600796639919281e-02,-1.545550767332315445e-04,1.074249949306249619e-02,-9.016114636324346066e-04
-1.534281019121408463e-02,-2.156482078135013580e-04,3.644904121756553650e-02,-1.305113895796239376e-03
-1.097617298364639282e-02,2.367629203945398331e-04,-5.998255684971809387e-03,5.377194844186306000e-03
-5.477651022374629974e-03,6.192532600834965706e-05,1.284088240936398506e-03,-5.688671022653579712e-03
2.671785652637481689e-02,1.030179788358509541e-03,-4.521182738244533539e-03,4.077870864421129227e-03
-7.532633375376462936e-03,5.567831452935934067e-03,-1.284583006054162979e-03,1.348652294836938381e-03
2.583453198894858360e-03,9.509507566690444946e-03,8.618468418717384338e-03,1.005747541785240173e-02
-2.333848387934267521e-04,1.612861454486846924e-02,-9.791584452614188194e-04,-3.321300027891993523e-03
-1.694277487695217133e-02,7.004756014794111252e-03,-9.946949285222217441e-05,2.221312024630606174e-04
-3.674407023936510086e-03,5.867218598723411560e-03,3.563982318155467510e-04,-2.079435798805207014e-04
2.452670969069004059e-02,5.984908714890480042e-02,-4.866289347410202026e-02,-1.394652016460895538e-02
9.463560767471790314e-03,-4.627373814582824707e-02,-2.097476832568645477e-02,2.153278887271881104e-02
-8.317469037137925625e-04,1.307407300919294357e-02,3.087727585807442665e-03,1.615582033991813660e-02
2.703484497033059597e-04,-2.210072707384824753e-03,-7.349594379775226116e-04,-2.304097288288176060e-04
-3.155640093609690666e-03,1.377753913402557373e-03,2.893889509141445160e-02,-1.388787291944026947e-02
5.690730176866054535e-03,8.901859633624553680e-03,-1.738893915899097919e-03,1.008835528045892715e-02
1.798815466463565826e-02,4.738887073472142220e-04,-1.200086786411702633e-03,-9.972839325200766325e-05
-1.437532063573598862e-02,-1.776826102286577225e-04,-7.676769746467471123e-04,1.372387341689318419e-04
-1.775774732232093811e-02,-1.450859289616346359e-02,1.290128799155354500e-03,4.787535872310400009e-04
-3.073750995099544525e-03,2.835439052432775497e-03,2.694857073947787285e-03,-3.761323168873786926e-03
5.918995011597871780e-03,1.967038027942180634e-02,-1.215537078678607941e-03,1.855561742559075356e-03
-1.518488570582121611e-04,-4.252229817211627960e-03,-6.230574799701571465e-04,5.034184549003839493e-03
7.502427324652671814e-04,-1.576650515198707581e-02,5.863445345312356949e-03,-5.505266017280519009e-04
5.627304781228303909e-04,-3.596412250772118568e-03,-5.608832463622093201e-03,-2.964208135381340981e-03
-3.535556793212890625e-02,-3.484633564949035645e-02,4.707099497318267822e-02,2.457370795309543610e-02
-2.984350430779159069e-04,-1.743958890438079834e-02,1.447364781051874161e-02,1.262336131185293198e-02
-6.407609907910227776e-05,5.237124394625425339e-03,1.384518807753920555e-03,-3.503938205540180206e-03
-1.271924376487731934e-02,1.041423296555876732e-03,1.283737015910446644e-03,9.863005951046943665e-03
-1.751037873327732086e-02,-1.376168522983789444e-02,7.513407035730779171e-04,-9.775930084288120270e-04
2.719815354794263840e-03,1.147946063429117203e-02,1.229251851327717304e-03,-2.077589451801031828e-04
-1.283776015043258667e-02,2.375904843211174011e-02,-6.511388346552848816e-03,6.221022340469062328e-04
1.134706847369670868e-02,-5.904402351006865501e-04,-4.674005322158336639e-03,5.920751951634883881e-03
1.037831977009773254e-02,1.749938353896141052e-02,-2.129645273089408875e-02,-2.325613237917423248e-02
2.622469095513224602e-03,2.844612579792737961e-03,-2.873875200748443604e-02,-4.403422935865819454e-04
-4.394306335598230362e-03,2.206506673246622086e-03,-1.427932525984942913e-03,1.941217225976288319e-03
-5.486986599862575531e-03,-6.296222098171710968e-03,-1.072445593308657408e-05,-1.097268774174153805e-03
7.047465769574046135e-04,6.338810198940336704e-04,-6.338272243738174438e-03,5.058686656411737204e-05
4.888024413958191872e-04,-3.291043685749173164e-03,4.563138645607978106e-04,1.157757869805209339e-04
-3.176730533596128225e-04,6.433866219595074654e-04,-1.577040925621986389e-02,-5.516341188922524452e-04
-1.419719192199409008e-04,-3.848125925287604332e-04,1.643921993672847748e-02,-1.583224395290017128e-03
-4.805181379197165370e-05,3.873269259929656982e-02,3.144537040498107672e-04,-1.339834090322256088e-02
-3.156537131872028112e-04,7.145142648369073868e-03,1.130960648879408836e-03,1.165524590760469437e-03
3.268082626163959503e-03,3.188491985201835632e-02,-1.210335083305835724e-02,4.390919115394353867e-03
-6.230730097740888596e-03,-1.220988761633634567e-02,-1.891351863741874695e-02,-4.789811209775507450e-04
-1.298927236348390579e-03,-1.413019024766981602e-03,1.201087492518126965e-03,1.131064072251319885e-02
1.218390883877873421e-03,-2.403661928838118911e-04,-1.861153915524482727e-02,1.050986908376216888e-02
-5.168272764421999454e-04,1.003974396735429764e-02,-8.571606129407882690e-03,-2.450659871101379395e-02
3.917430527508258820e-03,-5.223381333053112030e-03,-2.064871415495872498e-02,5.615994706749916077e-02
-3.456313163042068481e-03,-2.435686811804771423e-02,2.010654844343662262e-02,-1.179118826985359192e-02
4.731635563075542450e-04,-3.823877079412341118e-03,6.192005239427089691e-03,-5.954975727945566177e-03
1.146651525050401688e-02,-1.855421625077724457e-02,1.212555263191461563e-02,-2.025488577783107758e-02
-8.466899394989013672e-03,8.077207021415233612e-03,-1.654575578868389130e-02,1.873101480305194855e-02
6.449274253100156784e-03,-5.680040922015905380e-03,-2.300415188074111938e-02,3.968317061662673950e-03
1.320824772119522095e-02,-2.282580733299255371e-02,7.165509276092052460e-03,-1.588521711528301239e-02
2.007910236716270447e-02,-6.863432470709085464e-03,1.854402199387550354e-02,1.844814978539943695e-02
7.400825619697570801e-03,-2.290799748152494431e-03,-8.485958911478519440e-03,-1.987767405807971954e-03
-6.085454951971769333e-04,-5.751090589910745621e-03,4.739964380860328674e-03,-1.056681387126445770e-02
1.717644976451992989e-03,6.358719430863857269e-03,-3.340405412018299103e-03,1.372378086671233177e-03
1.412734761834144592e-02,1.461489871144294739e-02,-2.078615874052047729e-02,-4.971021786332130432e-03
-1.296569965779781342e-02,-4.130215384066104889e-03,-2.728607039898633957e-03,-4.801058094017207623e-04
-1.688181795179843903e-02,2.283760812133550644e-03,-9.865794330835342407e-03,-5.932704079896211624e-03
2.450943691655993462e-03,-2.849550510291010141e-04,-1.537702046334743500e-03,4.353113938122987747e-03
1.600116491317749023e-02,-1.911974139511585236e-02,1.684361486695706844e-04,1.149920839816331863e-02
4.673418402671813965e-02,-1.761023886501789093e-02,-1.595147768966853619e-03,-1.793392375111579895e-02
2.731096465140581131e-03,-2.149012871086597443e-02,1.487713190726935863e-03,-6.768499966710805893e-03
4.788349382579326630e-03,1.588853262364864349e-02,-1.408046018332242966e-02,-1.357393711805343628e-02
-2.369384048506617546e-03,-5.103396251797676086e-04,-5.944272037595510483e-03,-1.087017124518752098e-03
1.161814550869166851e-03,-1.501590595580637455e-04,-3.668472636491060257e-03,1.932315062731504440e-04
3.216550499200820923e-02,3.950009704567492008e-04,-1.012264564633369446e-02,-3.898892828146927059e-05
1.420757081359624863e-02,6.569577381014823914e-04,2.847911790013313293e-03,-4.594772122800350189e-03
1.114327646791934967e-02,-3.180262073874473572e-02,7.096597459167242050e-03,1.399928610771894455e-02
1.604715362191200256e-02,-8.353054523468017578e-03,8.164144121110439301e-03,-1.728357747197151184e-02
-1.495381537824869156e-02,-8.142617531120777130e-03,-3.315251553431153297e-03,2.350766153540462255e-04
2.825788035988807678e-02,-8.558832108974456787e-03,2.878328971564769745e-02,-6.410401314496994019e-03
2.160228043794631958e-02,-4.140321165323257446e-02,5.003230646252632141e-02,1.729189534671604633e-04
5.485443398356437683e-02,-1.720793545246124268e-02,-1.369994599372148514e-02,1.302745367866009474e-04
1.520050689578056335e-02,1.550270826555788517e-03,-1.231409143656492233e-03,-9.103851043619215488e-04
-7.592243608087301254e-03,7.346028462052345276e-03,2.208279212936758995e-03,-1.369418110698461533e-03
-2.185896970331668854e-02,1.707815565168857574e-02,1.660637557506561279e-02,-1.430553034879267216e-03
-5.212263669818639755e-03,9.327318519353866577e-03,8.218329399824142456e-03,7.141616661101579666e-04
9.235526085831224918e-04,9.485290502198040485e-04,5.889423191547393799e-04,-1.050981809385120869e-03
-9.428440243937075138e-04,-8.475799113512039185e-04,8.247095975093543530e-04,-3.942655748687684536e-04
4.185080062597990036e-03,3.167069330811500549e-02,-1.570750586688518524e-02,4.098705830983817577e-04
4.098160716239362955e-04,8.805383928120136261e-03,-3.903404576703906059e-04,-1.601588592166081071e-04
-5.943706491962075233e-04,-1.305325143039226532e-02,-7.200394291430711746e-03,5.134527571499347687e-03
4.098605131730437279e-06,-4.504161421209573746e-03,2.160144736990332603e-03,5.869587883353233337e-03
-2.835665363818407059e-04,-4.575110971927642822e-03,4.118406679481267929e-03,-9.091015817830339074e-05
4.643684951588511467e-04,7.101613096892833710e-03,1.367793325334787369e-02,-9.215041995048522949e-03
1.816618721932172775e-03,6.266309064812958241e-04,-8.004158735275268555e-03,1.613069674931466579e-03
-2.493202453479170799e-03,5.830596201121807098e-04,-2.252740086987614632e-03,4.652914591133594513e-03
-1.821736572310328484e-03,1.077790465205907822e-02,4.355877172201871872e-04,-1.388218719512224197e-02
1.550685381516814232e-03,2.273769350722432137e-04,-3.161291824653744698e-03,7.414356805384159088e-03
1.224941853433847427e-02,4.395341500639915466e-03,2.145070955157279968e-02,2.659672754816710949e-04
1.163971517235040665e-02,1.343021634966135025e-02,-1.795507268980145454e-03,9.638026240281760693e-04
3.739705309271812439e-03,3.508594632148742676e-02,-5.651628598570823669e-03,-2.211705967783927917e-02
-2.446745708584785461e-02,-5.694827414117753506e-04,2.916933735832571983e-03,1.757043600082397461e-02
7.948803715407848358e-03,-3.573555732145905495e-03,1.084517105482518673e-03,2.048447914421558380e-02
-1.832631975412368774e-02,2.955057425424456596e-04,-5.589160136878490448e-03,-1.121289934962987900e-02
-3.529307432472705841e-03,2.810561563819646835e-04,3.442623838782310486e-02,5.967877339571714401e-03
7.726612966507673264e-05,-1.278316485695540905e-03,-3.229686059057712555e-03,1.338503789156675339e-02
-2.938227728009223938e-02,-3.051782026886940002e-03,9.195833466947078705e-03,7.623819401487708092e-04
4.876219481229782104e-02,-1.822471735067665577e-03,-1.874685287475585938e-02,1.847718376666307449e-04
-7.435907609760761261e-03,1.481360755860805511e-03,8.085920126177370548e-04,-1.060335710644721985e-02
-3.216522745788097382e-03,2.008265350013971329e-03,8.299624896608293056e-04,-3.444039262831211090e-03
-1.232527662068605423e-03,1.258143130689859390e-02,4.550420679152011871e-03,-1.509225554764270782e-02
5.108777550049126148e-04,-2.231394499540328979e-02,3.384348470717668533e-03,4.201231058686971664e-03
-1.297409459948539734e-02,-1.517877820879220963e-02,1.171286683529615402e-03,-9.491381235420703888e-03
2.078810939565300941e-03,2.198304794728755951e-02,-2.577482518972828984e-05,1.765602792147547007e-04
-4.952915478497743607e-04,1.141620986163616180e-02,-7.543533109128475189e-03,-1.548187574371695518e-03
3.046650672331452370e-04,-1.531355455517768860e-02,1.895153708755970001e-02,-6.971514085307717323e-04
-2.221580967307090759e-02,-7.153734564781188965e-03,-8.964243344962596893e-03,-1.472320407629013062e-03
1.042885240167379379e-03,-3.091927384957671165e-03,7.474846788682043552e-04,5.542841972783207893e-04
7.434265222400426865e-03,3.213774180039763451e-04,-1.098626852035522461e-02,-4.171852022409439087e-03
8.235851302742958069e-03,2.868603914976119995e-04,-4.819094610866159201e-04,7.467272225767374039e-04
-2.180670946836471558e-02,-4.615630896296352148e-04,3.706410527229309082e-03,-2.541345776990056038e-03
1.479089609347283840e-03,5.717918975278735161e-05,-1.332460204139351845e-03,1.618595677427947521e-03
-1.998555287718772888e-02,-6.645859684795141220e-05,3.660701913759112358e-03,-1.578115858137607574e-02
2.691431436687707901e-04,-1.573301292955875397e-02,-1.692826044745743275e-04,-9.119079448282718658e-03
1.899329014122486115e-02,1.175728254020214081e-02,2.632914669811725616e-02,-1.486640423536300659e-03
1.904170587658882141e-02,2.195790875703096390e-04,1.025303453207015991e-02,-2.479587681591510773e-03
-6.342295673675835133e-04,2.891700249165296555e-03,7.785569177940487862e-04,-3.763154381886124611e-05
-1.655061263591051102e-03,1.702912524342536926e-02,2.066365070641040802e-02,-7.408002857118844986e-04
1.890652626752853394e-02,-5.840262863785028458e-03,9.291484020650386810e-04,-2.465802244842052460e-03
-2.307907305657863617e-02,6.766926962882280350e-03,-5.559474811889231205e-04,3.213495365343987942e-04
-7.435859180986881256e-03,7.203575805760920048e-04,2.647854271344840527e-04,-9.376457310281693935e-04
-2.760436385869979858e-03,-8.734507719054818153e-05,4.805757635040208697e-05,1.470994669944047928e-03
6.741519551724195480e-03,2.166669000871479511e-04,8.646262576803565025e-04,-4.889182746410369873e-03
3.189804404973983765e-02,4.592467448674142361e-04,-1.130544347688555717e-03,1.437890459783375263e-03
4.217775538563728333e-02,6.971883587539196014e-03,-1.595414429903030396e-02,-1.056646835058927536e-02
-3.648674115538597107e-02,2.854277566075325012e-02,8.626389317214488983e-03,-7.232317328453063965e-02
9.179928340017795563e-03,8.093503303825855255e-03,-6.204141303896903992e-03,4.904891364276409149e-03
-2.132312208414077759e-02,-7.424488198012113571e-03,6.391262868419289589e-04,-1.234837342053651810e-03
-1.713378587737679482e-03,-7.807341171428561211e-04,2.717969473451375961e-03,-2.172953973058611155e-04
-4.994043847545981407e-04,7.994783227331936359e-04,-9.743627160787582397e-03,-8.847111603245139122e-04
-1.010848791338503361e-03,-5.833712872117757797e-03,-1.843283697962760925e-02,1.491879345849156380e-03
-3.726005088537931442e-03,2.947046793997287750e-02,4.775186628103256226e-02,-1.278453040868043900e-03
-7.602771744132041931e-03,-6.030706223100423813e-03,-5.857976619154214859e-03,2.335733175277709961e-02
-7.980878464877605438e-03,2.497668378055095673e-03,-6.360890343785285950e-03,-2.727260114625096321e-03
1.501688268035650253e-02,-1.726190559566020966e-02,-4.559177905321121216e-02,3.850394859910011292e-02
-1.404874026775360107e-02,-1.280045974999666214e-02,-1.137776300311088562e-03,8.828889112919569016e-04
-3.451278433203697205e-03,2.190946787595748901e-02,1.116912811994552612e-03,6.969376932829618454e-03
-1.855011098086833954e-02,2.680370816960930824e-04,-4.829234443604946136e-03,9.594311006367206573e-03
2.011312916874885559e-02,1.217457349412143230e-03,1.703845709562301636e-02,-2.300638239830732346e-03
3.405314171686768532e-03,5.050637410022318363e-04,-1.469001639634370804e-02,-1.925992034375667572e-02
-2.102852426469326019e-02,-7.953838445246219635e-03,7.873132824897766113e-03,7.700033020228147507e-03
4.858121275901794434e-03,-6.217715563252568245e-04,-2.024177694693207741e-03,1.977935992181301117e-02
-1.048553502187132835e-03,4.606271104421466589e-04,8.002587128430604935e-04,-1.004543434828519821e-02
1.022222859319299459e-04,8.900288376025855541e-04,6.421244470402598381e-04,1.050884020514786243e-03
1.451416406780481339e-02,-1.097212173044681549e-02,7.871831767261028290e-04,9.061432443559169769e-03
5.123475100845098495e-03,1.124069187790155411e-02,1.544382772408425808e-03,-1.352336443960666656e-02
5.690934602171182632e-03,-2.509084716439247131e-02,7.219792343676090240e-03,-1.180078135803341866e-03
-2.385436557233333588e-02,2.308923751115798950e-03,4.257545806467533112e-03,-7.699449197389185429e-04
-2.499619312584400177e-02,-6.008855067193508148e-03,2.650432661175727844e-02,9.674934670329093933e-03
-1.627014484256505966e-03,-6.491385400295257568e-03,-1.123023591935634613e-02,4.849689546972513199e-03
-1.041952986270189285e-03,2.705039223656058311e-04,-2.690916648134589195e-03,1.040510134771466255e-03
-3.731540637090802193e-04,3.212940355297178030e-04,8.115416392683982849e-03,2.320919185876846313e-02
-5.622708704322576523e-04,-4.947208217345178127e-04,4.281698726117610931e-03,3.533696057274937630e-03
1.275002723559737206e-03,1.382412301609292626e-04,-2.288336679339408875e-02,-6.003769114613533020e-03
-6.128335371613502502e-05,3.239871701225638390e-03,-5.388199351727962494e-03,2.601331099867820740e-03
1.192815834656357765e-04,-1.025018747895956039e-02,6.572289858013391495e-04,5.784867797046899796e-03
-6.153926951810717583e-04,-7.662599906325340271e-03,2.554342150688171387e-02,-2.477933885529637337e-03
7.335940608754754066e-04,3.704328555613756180e-03,-1.031094870995730162e-04,5.664316122420132160e-04
4.409695975482463837e-05,1.100287772715091705e-03,2.717604674398899078e-02,3.597309114411473274e-03
1.041049836203455925e-03,-5.863637779839336872e-04,-9.928083047270774841e-03,-1.982525456696748734e-03
6.173349684104323387e-04,1.803166791796684265e-02,-2.026911266148090363e-02,-2.439762756694108248e-04
-4.215618828311562538e-04,3.704085247591137886e-03,6.035782862454652786e-03,-3.201391082257032394e-04
